D1,D2,D3,D4,D5,D6,D7,D8,D9,D10,D11,D12,D13,D14,D15,D16
-1.2424543977247207e-05,5.431819364797724e-18,-3.1529998757824805e-05,5.398589750034924e-05,0.00016429754349279682,7.298937981340456e-17,-3.426059610660536e-17,-0.4637431526293409,-1.4182510923924317e-07,2.3072352285923574e-18,-2.3771413561295308e-07,3.0338145894333943e-07,7.054931462266758e-07,2.0535947052307604e-19,7.274146576337247e-19,-0.00043216007410377743
-1.9990273284123765e-07,6.384031825786197e-18,-1.59634925557291e-07,1.396448484369205e-07,2.386682308380523e-07,-4.83387670210542e-18,5.873561645317837e-19,-3.027044417900757e-05,-5.6343754607146605e-06,1.5337760980365623e-18,-1.0555421523701753e-05,1.413163490836321e-05,3.37870407665737e-05,6.933476358836267e-18,-4.4839025621697064e-20,-0.02156346389234715
-4.087909903043632e-08,6.1212551599192335e-19,-4.525364949837525e-08,4.304894877768309e-08,7.64923330348134e-08,-3.5668813665911512e-19,-1.0381503756018627e-18,-1.0168882867953496e-05,-7.163302826297936e-06,4.5699498625726e-18,-1.2006086320052063e-05,1.532252935045211e-05,3.5631288093075375e-05,4.479424044517156e-18,-2.6778203615689397e-18,-0.021826275615285613
-3.215390972853924e-08,1.0633853582531404e-18,-3.978576641996041e-08,3.970310732779666e-08,7.253315029688156e-08,-1.2692113933622167e-18,-1.6365277575908212e-18,-1.0046438632665976e-05,-5.6343754607146605e-06,3.997102787239525e-18,-1.0555421523701777e-05,1.413163490837117e-05,3.378704076646595e-05,4.4383569157899015e-18,-2.587388043845291e-18,-0.021563463892347267
-3.215390972526498e-08,-1.5979604842793523e-19,-3.9785766420719546e-08,3.9703107324476715e-08,7.253315029874869e-08,-1.597155847218791e-20,1.159769585445217e-19,-1.0046438632665778e-05,-5.6343754607146605e-06,3.9971027872394824e-18,-1.0555421523701777e-05,1.4131634908363228e-05,3.378704076657542e-05,4.438534010027147e-18,-2.5684122449540096e-18,-0.02156346389234688
-3.2153909726586356e-08,6.656363933546419e-20,-3.9785766420364004e-08,3.970310732524831e-08,7.253315029813958e-08,-2.772987751066043e-19,-2.4102914726549422e-19,-1.0046438632665917e-05,-5.6343754607146605e-06,3.9971027872394554e-18,-1.0555421523701777e-05,1.4131634908363228e-05,3.378704076657376e-05,5.457136084559916e-18,-2.387381599462673e-16,-0.021563463892347316
-8.675337631721873e-08,-1.0578728566936592e-17,-9.105913778894678e-08,8.570813596407166e-08,1.5176493406818476e-07,3.2947496521454873e-18,-1.6666621569950054e-19,-2.013649181458378e-05,-5.6343754607146605e-06,3.9971027872395086e-18,-1.0555421523701777e-05,1.4131634908363228e-05,3.378704076657376e-05,4.4385071772002354e-18,3.4218717029264147e-18,-0.021563463892347215
-3.2480594390971824e-06,1.1554325553372293e-18,-4.018872034918035e-06,4.010475982185427e-06,7.326646865837068e-06,6.26521352378294e-20,-6.942815363598277e-19,-0.0010147922109804137,-5.6343754607146605e-06,3.9971027872395055e-18,-1.0555421523701777e-05,1.4131634908363228e-05,3.378704076657376e-05,4.4385071772002555e-18,-2.6040452456080377e-18,-0.021563463892347194
-3.2153909724639014e-08,-2.3059288385362414e-19,-3.978576642122226e-08,3.970310732412969e-08,7.253315029882778e-08,3.908037224666574e-19,4.953392823903257e-19,-1.0046438632665732e-05,-5.6343754607146605e-06,3.997102787239508e-18,-1.0555421523701777e-05,1.4131634908363228e-05,3.378704076657376e-05,4.438507177200264e-18,-2.6040452456080327e-18,-0.021563463892347225
-1.9990273283380853e-07,-1.8027755307369434e-18,-1.5963492555098866e-07,1.396448484364802e-07,2.3866823083943685e-07,3.114495701688414e-19,-5.782693272900899e-19,-3.0270444179004646e-05,-5.6343754607146605e-06,3.997102787239508e-18,-1.0555421523701777e-05,1.4131634908363228e-05,3.378704076657376e-05,4.438507177200264e-18,-2.6040452456080327e-18,-0.021563463892347225
-3.2153909723722703e-08,-5.412791098549586e-19,-3.978576642090709e-08,3.970310732287977e-08,7.253315029940678e-08,1.0606665400166198e-18,9.268030550871258e-19,-1.0046438632665596e-05,-5.6343754607146605e-06,3.997102787239508e-18,-1.0555421523701777e-05,1.4131634908363228e-05,3.378704076657376e-05,4.438507177200264e-18,-2.6040452456080327e-18,-0.021563463892347225
-3.215390972330354e-08,-2.719955643516605e-19,-3.978576642104818e-08,3.97031073229856e-08,7.253315029938843e-08,5.863608741430493e-19,1.0493645931852891e-18,-1.0046438632665568e-05,-5.6343754607146605e-06,3.997102787239508e-18,-1.0555421523701777e-05,1.4131634908363228e-05,3.378704076657376e-05,4.438507177200264e-18,-2.6040452456080327e-18,-0.021563463892347225
-6.865581142169552e-06,8.20033937985092e-18,-5.481728813648409e-06,4.795120955981049e-06,8.195255798915157e-06,-7.506604546392613e-19,-1.1449683804320738e-18,-0.0010393900835607643,-5.6343754607146605e-06,3.997102787239508e-18,-1.0555421523701777e-05,1.4131634908363228e-05,3.378704076657376e-05,4.438507177200264e-18,-2.6040452456080327e-18,-0.021563463892347225
-8.675337632997359e-08,8.74108292063302e-18,-9.105913779869566e-08,8.57081359681046e-08,1.5176493406876892e-07,-8.5010750460768715e-19,-5.788212963266641e-19,-2.013649181458706e-05,-5.6343754607146605e-06,3.997102787239508e-18,-1.0555421523701777e-05,1.4131634908363228e-05,3.378704076657376e-05,4.438507177200264e-18,-2.6040452456080327e-18,-0.021563463892347225
-3.2153909726768515e-08,5.17115410181522e-19,-3.978576642020617e-08,3.97031073256592e-08,7.25331502982098e-08,-2.0376592555260507e-19,-4.498808666824008e-19,-1.0046438632665915e-05,-5.6343754607146605e-06,3.997102787239508e-18,-1.0555421523701777e-05,1.4131634908363228e-05,3.378704076657376e-05,4.438507177200264e-18,-2.6040452456080327e-18,-0.021563463892347225
-3.2153909724294325e-08,-4.341569911550445e-19,-3.9785766421473934e-08,3.9703107323677705e-08,7.253315029863817e-08,-3.255883226662526e-20,5.692612488667785e-19,-1.0046438632665696e-05,-5.6343754607146605e-06,3.997102787239508e-18,-1.0555421523701777e-05,1.4131634908363228e-05,3.378704076657376e-05,4.438507177200264e-18,-2.6040452456080327e-18,-0.021563463892347225
-1.0921355167420718e-19,-4.674783447572556e-19,-1.9193003050957781e-19,2.5172459498656333e-18,-3.1413452141442505e-19,1.2995838332781563e-19,-9.436807223515787e-19,6.9829565199037955e-19,-5.6343754607146605e-06,3.997102787239508e-18,-1.0555421523701777e-05,1.4131634908363228e-05,3.378704076657376e-05,4.438507177200264e-18,-2.6040452456080327e-18,-0.021563463892347225
-3.215390972591259e-08,1.3177346903840933e-19,-3.9785766420526905e-08,3.970310732499406e-08,7.253315029852298e-08,6.685758780669337e-21,-1.3321807454905358e-19,-1.0046438632665825e-05,-5.6343754607146605e-06,3.997102787239508e-18,-1.0555421523701777e-05,1.4131634908363228e-05,3.378704076657376e-05,4.438507177200264e-18,-2.6040452456080327e-18,-0.021563463892347225
-3.215390972557696e-08,-4.7616769240127497e-20,-3.9785766420646436e-08,3.9703107324655916e-08,7.253315029857949e-08,-2.2560505927896486e-21,2.4535685784712618e-20,-1.0046438632665803e-05,-5.6343754607146605e-06,3.997102787239508e-18,-1.0555421523701777e-05,1.4131634908363228e-05,3.378704076657376e-05,4.438507177200264e-18,-2.6040452456080327e-18,-0.021563463892347225
-3.215390972415947e-08,1.4727983423596627e-20,-3.978576642109259e-08,3.970310732376893e-08,7.253315029864295e-08,4.1765551651608703e-19,4.426360500471338e-19,-1.0046438632665515e-05,-5.6343754607146605e-06,3.997102787239508e-18,-1.0555421523701777e-05,1.4131634908363228e-05,3.378704076657376e-05,4.438507177200264e-18,-2.6040452456080327e-18,-0.021563463892347225
-3.215390972847836e-08,2.0451841283412997e-18,-3.978576642002248e-08,3.9703107327325724e-08,7.253315029709516e-08,-5.742269977606219e-19,-1.1166292442696141e-18,-1.0046438632666039e-05,-5.6343754607146605e-06,3.997102787239508e-18,-1.0555421523701777e-05,1.4131634908363228e-05,3.378704076657376e-05,4.438507177200264e-18,-2.6040452456080327e-18,-0.021563463892347225
-3.215390972401707e-08,-8.781308454899613e-19,-3.978576642129803e-08,3.970310732321744e-08,7.253315029863574e-08,5.581329566308349e-19,6.504815377397918e-19,-1.004643863266569e-05,-5.6343754607146605e-06,3.997102787239508e-18,-1.0555421523701777e-05,1.4131634908363228e-05,3.378704076657376e-05,4.438507177200264e-18,-2.6040452456080327e-18,-0.021563463892347225
-3.7824338347797946e-20,-2.982376639033977e-19,-4.5565800416724524e-20,9.89253779055807e-19,-5.290791531773362e-20,3.730633490287502e-20,-3.3698577214899915e-19,2.404363851244224e-19,-5.6343754607146605e-06,3.997102787239508e-18,-1.0555421523701777e-05,1.4131634908363228e-05,3.378704076657376e-05,4.438507177200264e-18,-2.6040452456080327e-18,-0.021563463892347225
-8.675337631876755e-08,-8.818641474214494e-18,-9.105913778712535e-08,8.570813596323609e-08,1.5176493406712343e-07,7.949701300824172e-19,7.716793884186941e-19,-2.013649181458442e-05,-5.6343754607146605e-06,3.997102787239508e-18,-1.0555421523701777e-05,1.4131634908363228e-05,3.378704076657376e-05,4.438507177200264e-18,-2.6040452456080327e-18,-0.021563463892347225
-3.215390972825695e-08,3.147004116432033e-19,-3.9785766418797125e-08,3.9703107325922654e-08,7.253315029880029e-08,-3.2873969764662913e-19,-6.262400281941975e-19,-1.004643863266616e-05,-5.6343754607146605e-06,3.997102787239508e-18,-1.0555421523701777e-05,1.4131634908363228e-05,3.378704076657376e-05,4.438507177200264e-18,-2.6040452456080327e-18,-0.021563463892347225
-3.2153909724606304e-08,-5.374181708121942e-19,-3.978576642129897e-08,3.970310732382499e-08,7.253315029904708e-08,2.005197699426058e-19,4.465468041654653e-19,-1.0046438632665705e-05,-5.6343754607146605e-06,3.997102787239508e-18,-1.0555421523701777e-05,1.4131634908363228e-05,3.378704076657376e-05,4.438507177200264e-18,-2.6040452456080327e-18,-0.021563463892347225
-3.2153909725268e-08,-2.075259639979123e-19,-3.978576642077718e-08,3.9703107324314985e-08,7.253315029879182e-08,1.1668772980826577e-19,1.5378181066961224e-19,-1.004643863266579e-05,-5.6343754607146605e-06,3.997102787239508e-18,-1.0555421523701777e-05,1.4131634908363228e-05,3.378704076657376e-05,4.438507177200264e-18,-2.6040452456080327e-18,-0.021563463892347225
-3.215390972763148e-08,6.884787034729531e-19,-3.978576641972164e-08,3.970310732616704e-08,7.253315029784595e-08,-5.810811938178685e-19,-8.632835863201303e-19,-1.004643863266596e-05,-5.6343754607146605e-06,3.997102787239508e-18,-1.0555421523701777e-05,1.4131634908363228e-05,3.378704076657376e-05,4.438507177200264e-18,-2.6040452456080327e-18,-0.021563463892347225
-0.0001060175965099869,3.5237898524703365e-18,7.935685254311805e-06,-0.00017586008193158002,-2.5298265437614364e-05,-1.4305713775441427e-18,-2.944909963113357e-19,-2.237001251565625e-05,-5.6343754607146605e-06,3.997102787239508e-18,-1.0555421523701777e-05,1.4131634908363228e-05,3.378704076657376e-05,4.438507177200264e-18,-2.6040452456080327e-18,-0.021563463892347225
-3.2153909723087674e-08,-6.054841673436648e-19,-3.978576642161018e-08,3.970310732242881e-08,7.253315029893506e-08,4.11126414707412e-19,9.469375222966404e-19,-1.004643863266555e-05,-5.6343754607146605e-06,3.997102787239508e-18,-1.0555421523701777e-05,1.4131634908363228e-05,3.378704076657376e-05,4.438507177200264e-18,-2.6040452456080327e-18,-0.021563463892347225
-3.2153909727623436e-08,5.60112782435694e-19,-3.978576641971593e-08,3.9703107326207726e-08,7.253315029772407e-08,-9.103230699881507e-19,-7.066109291142688e-19,-1.004643863266607e-05,-5.6343754607146605e-06,3.997102787239508e-18,-1.0555421523701777e-05,1.4131634908363228e-05,3.378704076657376e-05,4.438507177200264e-18,-2.6040452456080327e-18,-0.021563463892347225
-3.215390972407896e-08,-1.3073557767847547e-18,-3.9785766421211956e-08,3.9703107323015054e-08,7.253315029933851e-08,4.612962162192068e-19,3.740139335270152e-19,-1.0046438632665607e-05,-5.6343754607146605e-06,3.997102787239508e-18,-1.0555421523701777e-05,1.4131634908363228e-05,3.378704076657376e-05,4.438507177200264e-18,-2.6040452456080327e-18,-0.021563463892347225
-1.99902732844603e-07,1.0389300747712081e-17,-1.5963492555775744e-07,1.3964484844002936e-07,2.3866823084170256e-07,-1.363043631766999e-18,-1.2638221991932452e-18,-3.0270444179006367e-05,-5.6343754607146605e-06,3.997102787239508e-18,-1.0555421523701777e-05,1.4131634908363228e-05,3.378704076657376e-05,4.438507177200264e-18,-2.6040452456080327e-18,-0.021563463892347225
-3.2153909724901674e-08,-3.164269434802166e-19,-3.978576642079986e-08,3.970310732400053e-08,7.253315029859506e-08,-3.4915871775131527e-20,2.287043140378005e-19,-1.0046438632665713e-05,-5.6343754607146605e-06,3.997102787239508e-18,-1.0555421523701777e-05,1.4131634908363228e-05,3.378704076657376e-05,4.438507177200264e-18,-2.6040452456080327e-18,-0.021563463892347225
-3.215390972850603e-08,1.3398017386581497e-18,-3.978576642036413e-08,3.970310732696235e-08,7.253315029800401e-08,-5.159281633151907e-20,-8.35007314513351e-19,-1.0046438632665983e-05,-5.6343754607146605e-06,3.997102787239508e-18,-1.0555421523701777e-05,1.4131634908363228e-05,3.378704076657376e-05,4.438507177200264e-18,-2.6040452456080327e-18,-0.021563463892347225
-8.67533763230185e-08,-1.4579644818841944e-18,-9.105913779150668e-08,8.570813596539482e-08,1.5176493406832184e-07,4.3358588437168215e-19,1.5906924410773217e-19,-2.0136491814585373e-05,-5.6343754607146605e-06,3.997102787239508e-18,-1.0555421523701777e-05,1.4131634908363228e-05,3.378704076657376e-05,4.438507177200264e-18,-2.6040452456080327e-18,-0.021563463892347225
-1.1030061437518753e-07,1.8018294193601793e-19,-1.0357557805788135e-07,9.293174138259278e-08,1.6004974655831765e-07,-4.1482460949901566e-20,-7.92872918849817e-21,-2.038191629503336e-05,-7.163698996761797e-06,5.207562269931759e-18,-1.200630614855958e-05,1.5322669497159436e-05,3.563146747202958e-05,4.454652173970587e-18,-2.7859851257894585e-18,-0.02182628037354774
-3.2153909726207455e-08,1.4978974118250825e-19,-3.9785766420423355e-08,3.970310732525286e-08,7.253315029835652e-08,-1.8512110299358976e-19,-2.1820521017875435e-19,-1.0046438632665859e-05,-5.6343754607146605e-06,3.997102787239508e-18,-1.0555421523701777e-05,1.4131634908363228e-05,3.378704076657376e-05,4.438507177200264e-18,-2.6040452456080327e-18,-0.021563463892347225
-8.675337632127143e-08,-4.130875893025988e-18,-9.105913778936982e-08,8.570813596197478e-08,1.51764934068342e-07,4.526194030354587e-19,1.0308691690389625e-18,-2.0136491814585963e-05,-5.6343754607146605e-06,3.997102787239508e-18,-1.0555421523701777e-05,1.4131634908363228e-05,3.378704076657376e-05,4.438507177200264e-18,-2.6040452456080327e-18,-0.021563463892347225
-3.215390972723145e-08,6.526894036847427e-19,-3.9785766420267726e-08,3.9703107325740714e-08,7.253315029810746e-08,-3.3142438466216353e-19,-8.033497317134595e-19,-1.0046438632666003e-05,-5.6343754607146605e-06,3.997102787239508e-18,-1.0555421523701777e-05,1.4131634908363228e-05,3.378704076657376e-05,4.438507177200264e-18,-2.6040452456080327e-18,-0.021563463892347225
-8.67533763224197e-08,-1.921039132052986e-18,-9.105913779062811e-08,8.570813596527311e-08,1.5176493406815585e-07,1.5738366217808323e-19,2.2193025982539606e-19,-2.0136491814585234e-05,-5.6343754607146605e-06,3.997102787239508e-18,-1.0555421523701777e-05,1.4131634908363228e-05,3.378704076657376e-05,4.438507177200264e-18,-2.6040452456080327e-18,-0.021563463892347225
-3.2153909722974456e-08,-1.0847740188275392e-18,-3.978576642097003e-08,3.9703107322112144e-08,7.253315029945285e-08,-1.8322054633393008e-20,1.002106453984984e-18,-1.0046438632665598e-05,-5.6343754607146605e-06,3.997102787239508e-18,-1.0555421523701777e-05,1.4131634908363228e-05,3.378704076657376e-05,4.438507177200264e-18,-2.6040452456080327e-18,-0.021563463892347225
-3.2153909724225894e-08,-6.1662081924920685e-19,-3.9785766420849314e-08,3.970310732357249e-08,7.253315029867055e-08,3.7774476499073595e-19,5.112478315008366e-19,-1.0046438632665671e-05,-5.6343754607146605e-06,3.997102787239508e-18,-1.0555421523701777e-05,1.4131634908363228e-05,3.378704076657376e-05,4.438507177200264e-18,-2.6040452456080327e-18,-0.021563463892347225
-3.2153909723922974e-08,-4.767634042718668e-19,-3.978576642122161e-08,3.9703107323477025e-08,7.253315029888504e-08,1.6742730891130428e-19,7.565995996894343e-19,-1.0046438632665652e-05,-5.6343754607146605e-06,3.997102787239508e-18,-1.0555421523701777e-05,1.4131634908363228e-05,3.378704076657376e-05,4.438507177200264e-18,-2.6040452456080327e-18,-0.021563463892347225
-1.9990273282220296e-07,-1.2768236580598883e-17,-1.5963492554435023e-07,1.3964484842985584e-07,2.386682308386078e-07,2.1265346485389242e-18,1.1510980231348015e-18,-3.0270444179002417e-05,-5.6343754607146605e-06,3.997102787239508e-18,-1.0555421523701777e-05,1.4131634908363228e-05,3.378704076657376e-05,4.438507177200264e-18,-2.6040452456080327e-18,-0.021563463892347225
-3.2153909722936716e-08,-1.0475837938819682e-18,-3.9785766421326e-08,3.970310732229768e-08,7.25331502991182e-08,3.608092771229824e-19,9.410195777228783e-19,-1.004643863266557e-05,-5.6343754607146605e-06,3.997102787239508e-18,-1.0555421523701777e-05,1.4131634908363228e-05,3.378704076657376e-05,4.438507177200264e-18,-2.6040452456080327e-18,-0.021563463892347225
-3.215390972738492e-08,4.140231630401137e-19,-3.9785766420255676e-08,3.970310732580109e-08,7.25331502981631e-08,-2.352121947973313e-19,-5.742128882942627e-19,-1.0046438632666018e-05,-5.6343754607146605e-06,3.997102787239508e-18,-1.0555421523701777e-05,1.4131634908363228e-05,3.378704076657376e-05,4.438507177200264e-18,-2.6040452456080327e-18,-0.021563463892347225
-8.67533763201151e-08,-5.939861475286911e-18,-9.105913778956383e-08,8.570813596414043e-08,1.5176493406924095e-07,1.2724956283373818e-18,5.223854390730692e-19,-2.013649181458499e-05,-5.6343754607146605e-06,3.997102787239508e-18,-1.0555421523701777e-05,1.4131634908363228e-05,3.378704076657376e-05,4.438507177200264e-18,-2.6040452456080327e-18,-0.021563463892347225
-3.215390972710062e-08,7.970903427604381e-19,-3.978576642037747e-08,3.970310732568096e-08,7.253315029810964e-08,7.209215454982522e-20,-4.491895177125274e-19,-1.0046438632665917e-05,-5.6343754607146605e-06,3.997102787239508e-18,-1.0555421523701777e-05,1.4131634908363228e-05,3.378704076657376e-05,4.438507177200264e-18,-2.6040452456080327e-18,-0.021563463892347225
-3.215390972628847e-08,1.1568168591184177e-19,-3.9785766420664204e-08,3.9703107325494955e-08,7.253315029848863e-08,-1.9687742889367445e-19,-2.158992371744538e-19,-1.0046438632665845e-05,-5.6343754607146605e-06,3.997102787239508e-18,-1.0555421523701777e-05,1.4131634908363228e-05,3.378704076657376e-05,4.438507177200264e-18,-2.6040452456080327e-18,-0.021563463892347225
-3.2153909724209284e-08,5.54575684250109e-20,-3.9785766421474325e-08,3.970310732385395e-08,7.253315029861639e-08,7.149560424163498e-20,4.9703348836888175e-19,-1.0046438632665646e-05,-5.6343754607146605e-06,3.997102787239508e-18,-1.0555421523701777e-05,1.4131634908363228e-05,3.378704076657376e-05,4.438507177200264e-18,-2.6040452456080327e-18,-0.021563463892347225
1.251163569364789e-19,8.689103122437445e-20,1.022120048528984e-19,-1.863144479707634e-18,4.869709787071097e-19,-9.085882603689797e-20,7.07137522019565e-19,-5.034683348718167e-19,-5.6343754607146605e-06,3.997102787239508e-18,-1.0555421523701777e-05,1.4131634908363228e-05,3.378704076657376e-05,4.438507177200264e-18,-2.6040452456080327e-18,-0.021563463892347225
-2.4362795077128705e-20,-3.7445542880346524e-20,-3.8318522382286437e-20,5.265198286059263e-19,-1.4302237445976544e-20,1.0512687706314404e-19,-1.6635400376540598e-19,1.605402436533538e-19,-5.6343754607146605e-06,3.997102787239508e-18,-1.0555421523701777e-05,1.4131634908363228e-05,3.378704076657376e-05,4.438507177200264e-18,-2.6040452456080327e-18,-0.021563463892347225
-3.2475448822900196e-06,9.729453604443255e-20,-4.01836240848627e-06,4.0100138397978945e-06,7.325848180155926e-06,5.429532857010064e-19,-2.2799082760156033e-20,-0.0010146903018992462,-5.6343754607146605e-06,3.997102787239508e-18,-1.0555421523701777e-05,1.4131634908363228e-05,3.378704076657376e-05,4.438507177200264e-18,-2.6040452456080327e-18,-0.021563463892347225
-1.999027328324781e-07,-3.617344869213869e-19,-1.5963492555110098e-07,1.3964484843208134e-07,2.3866823084003396e-07,-3.7494823286303565e-20,9.55927323709588e-19,-3.027044417900533e-05,-5.6343754607146605e-06,3.997102787239508e-18,-1.0555421523701777e-05,1.4131634908363228e-05,3.378704076657376e-05,4.438507177200264e-18,-2.6040452456080327e-18,-0.021563463892347225
-3.2153909726828396e-08,1.774854680409295e-20,-3.9785766420337554e-08,3.9703107325659134e-08,7.253315029836219e-08,-4.865421995445689e-19,-5.184215732874616e-19,-1.0046438632665901e-05,-5.6343754607146605e-06,3.997102787239508e-18,-1.0555421523701777e-05,1.4131634908363228e-05,3.378704076657376e-05,4.438507177200264e-18,-2.6040452456080327e-18,-0.021563463892347225
2.5561592992254826e-19,1.74422662919458e-19,3.7849338234309764e-19,-3.9880430429630386e-18,8.543137630872893e-19,-5.990827632700124e-19,1.4817791663848378e-18,-8.850961477489984e-19,-5.6343754607146605e-06,3.997102787239508e-18,-1.0555421523701777e-05,1.4131634908363228e-05,3.378704076657376e-05,4.438507177200264e-18,-2.6040452456080327e-18,-0.021563463892347225
-1.3848797108203926e-19,-4.708219072761596e-19,-1.4509502751680151e-19,2.9751419918014934e-18,-7.012431351625155e-19,-1.5837923510121704e-21,-8.88191122969461e-19,6.457837260948288e-19,-5.6343754607146605e-06,3.997102787239508e-18,-1.0555421523701777e-05,1.4131634908363228e-05,3.378704076657376e-05,4.438507177200264e-18,-2.6040452456080327e-18,-0.021563463892347225
-8.675337632151094e-08,-5.448670566755389e-18,-9.105913778987506e-08,8.570813596719152e-08,1.517649340670138e-07,8.420863292954404e-19,-9.996459923312577e-19,-2.0136491814584634e-05,-5.6343754607146605e-06,3.997102787239508e-18,-1.0555421523701777e-05,1.4131634908363228e-05,3.378704076657376e-05,4.438507177200264e-18,-2.6040452456080327e-18,-0.021563463892347225
5.095504718115138e-20,1.5193565020642845e-19,4.610746550881319e-20,-1.144232380831431e-18,2.3962253428890024e-19,-2.2382586306712334e-19,4.1312756819356383e-19,-3.6476124682907703e-19,-5.6343754607146605e-06,3.997102787239508e-18,-1.0555421523701777e-05,1.4131634908363228e-05,3.378704076657376e-05,4.438507177200264e-18,-2.6040452456080327e-18,-0.021563463892347225
-8.675337632929026e-08,7.781632987757687e-18,-9.105913779842386e-08,8.570813596847606e-08,1.5176493406789145e-07,-2.0240719701625346e-18,-1.608012998530466e-18,-2.013649181458693e-05,-5.6343754607146605e-06,3.997102787239508e-18,-1.0555421523701777e-05,1.4131634908363228e-05,3.378704076657376e-05,4.438507177200264e-18,-2.6040452456080327e-18,-0.021563463892347225
-8.67533763253986e-08,2.0422603603717395e-18,-9.105913779370312e-08,8.570813596907158e-08,1.517649340679707e-07,6.704642388956852e-20,-1.3091756020151234e-18,-2.013649181458506e-05,-5.6343754607146605e-06,3.997102787239508e-18,-1.0555421523701777e-05,1.4131634908363228e-05,3.378704076657376e-05,4.438507177200264e-18,-2.6040452456080327e-18,-0.021563463892347225
-3.215390972673631e-08,6.376011551071023e-19,-3.9785766420610967e-08,3.970310732586508e-08,7.253315029816925e-08,-3.777735715144094e-19,-4.747751244303225e-19,-1.0046438632665873e-05,-5.6343754607146605e-06,3.997102787239508e-18,-1.0555421523701777e-05,1.4131634908363228e-05,3.378704076657376e-05,4.438507177200264e-18,-2.6040452456080327e-18,-0.021563463892347225
-9.16370812025183e-20,-9.09364034623508e-20,-7.233575110818148e-20,1.2663849364426073e-18,-1.7811578936117825e-19,1.2740966961132934e-19,-4.418573362817595e-19,3.7675521639336365e-19,-5.6343754607146605e-06,3.997102787239508e-18,-1.0555421523701777e-05,1.4131634908363228e-05,3.378704076657376e-05,4.438507177200264e-18,-2.6040452456080327e-18,-0.021563463892347225
-3.215390972723296e-08,3.227961709849983e-19,-3.978576642011825e-08,3.970310732567191e-08,7.253315029818955e-08,9.417129348245199e-20,-6.698757201454727e-19,-1.0046438632665942e-05,-5.6343754607146605e-06,3.997102787239508e-18,-1.0555421523701777e-05,1.4131634908363228e-05,3.378704076657376e-05,4.438507177200264e-18,-2.6040452456080327e-18,-0.021563463892347225
-3.215390972674285e-08,4.630991748383445e-19,-3.978576642030792e-08,3.970310732597843e-08,7.253315029841682e-08,-3.998691771667363e-19,-4.956776399842965e-19,-1.0046438632665913e-05,-5.6343754607146605e-06,3.997102787239508e-18,-1.0555421523701777e-05,1.4131634908363228e-05,3.378704076657376e-05,4.438507177200264e-18,-2.6040452456080327e-18,-0.021563463892347225
-3.2153909726753923e-08,-1.1112417559904057e-19,-3.9785766420154105e-08,3.970310732540802e-08,7.25331502982528e-08,-3.952081228002983e-19,-3.0596013211146947e-19,-1.0046438632665944e-05,-5.6343754607146605e-06,3.997102787239508e-18,-1.0555421523701777e-05,1.4131634908363228e-05,3.378704076657376e-05,4.438507177200264e-18,-2.6040452456080327e-18,-0.021563463892347225
-3.2153909725967936e-08,7.017113417550837e-20,-3.978576642054901e-08,3.970310732502095e-08,7.253315029859881e-08,-7.376724188819784e-20,-1.4097912422978907e-19,-1.0046438632665827e-05,-5.6343754607146605e-06,3.997102787239508e-18,-1.0555421523701777e-05,1.4131634908363228e-05,3.378704076657376e-05,4.438507177200264e-18,-2.6040452456080327e-18,-0.021563463892347225
-3.215390972440352e-08,-4.466173138574203e-19,-3.978576642120271e-08,3.9703107323693667e-08,7.253315029865292e-08,2.8222256534017215e-19,4.445489644844129e-19,-1.0046438632665703e-05,-5.6343754607146605e-06,3.997102787239508e-18,-1.0555421523701777e-05,1.4131634908363228e-05,3.378704076657376e-05,4.438507177200264e-18,-2.6040452456080327e-18,-0.021563463892347225
-3.21539097264037e-08,4.55947311637557e-19,-3.978576642066155e-08,3.970310732519152e-08,7.253315029839678e-08,-9.420035884668508e-20,-1.7840322143835408e-19,-1.0046438632665891e-05,-5.6343754607146605e-06,3.997102787239508e-18,-1.0555421523701777e-05,1.4131634908363228e-05,3.378704076657376e-05,4.438507177200264e-18,-2.6040452456080327e-18,-0.021563463892347225
-3.2153909724095563e-08,-7.084005395736316e-19,-3.978576642113788e-08,3.970310732325816e-08,7.253315029882108e-08,4.221455524427196e-19,4.206553139348018e-19,-1.0046438632665618e-05,-5.6343754607146605e-06,3.997102787239508e-18,-1.0555421523701777e-05,1.4131634908363228e-05,3.378704076657376e-05,4.438507177200264e-18,-2.6040452456080327e-18,-0.021563463892347225
-3.2153909726463073e-08,3.875698450509439e-19,-3.9785766420482184e-08,3.9703107325348206e-08,7.253315029840261e-08,-1.7324897338818668e-19,-2.6077568828791134e-19,-1.0046438632665884e-05,-5.6343754607146605e-06,3.997102787239508e-18,-1.0555421523701777e-05,1.4131634908363228e-05,3.378704076657376e-05,4.438507177200264e-18,-2.6040452456080327e-18,-0.021563463892347225
-8.675337633035099e-08,1.1132767296073764e-17,-9.10591377999337e-08,8.570813596677272e-08,1.5176493406906342e-07,7.524447702733512e-19,-1.0756796248324981e-18,-2.0136491814587277e-05,-5.6343754607146605e-06,3.997102787239508e-18,-1.0555421523701777e-05,1.4131634908363228e-05,3.378704076657376e-05,4.438507177200264e-18,-2.6040452456080327e-18,-0.021563463892347225
-6.491614625006986e-20,-1.4277691246899196e-19,-8.854148921509793e-20,1.0084045591127036e-18,1.1711800612307723e-19,1.2845703110187376e-19,-4.398149740015317e-19,3.422831598957619e-19,-5.6343754607146605e-06,3.997102787239508e-18,-1.0555421523701777e-05,1.4131634908363228e-05,3.378704076657376e-05,4.438507177200264e-18,-2.6040452456080327e-18,-0.021563463892347225
8.040413825599742e-20,6.5021011649586815e-19,1.9968832783627787e-19,-2.6889282708699898e-18,5.938431884443288e-19,-5.27952748549999e-19,9.569125951709009e-19,-7.481455811291357e-19,-5.6343754607146605e-06,3.997102787239508e-18,-1.0555421523701777e-05,1.4131634908363228e-05,3.378704076657376e-05,4.438507177200264e-18,-2.6040452456080327e-18,-0.021563463892347225
3.464637734976114e-20,1.173757336277038e-19,3.4901917241006176e-20,-7.041409151521093e-19,-4.1397006349532366e-20,-1.2391004471783475e-19,2.98337875841377e-19,-1.5817742184243216e-19,-5.6343754607146605e-06,3.997102787239508e-18,-1.0555421523701777e-05,1.4131634908363228e-05,3.378704076657376e-05,4.438507177200264e-18,-2.6040452456080327e-18,-0.021563463892347225
-3.215390972829016e-08,1.080669216235595e-18,-3.978576641993647e-08,3.97031073274191e-08,7.253315029778131e-08,-5.466794972192637e-19,-9.839288352654521e-19,-1.00464386326661e-05,-5.6343754607146605e-06,3.997102787239508e-18,-1.0555421523701777e-05,1.4131634908363228e-05,3.378704076657376e-05,4.438507177200264e-18,-2.6040452456080327e-18,-0.021563463892347225
-3.4950157781108016e-07,5.296156131858743e-18,-2.311935932789268e-07,1.9426966950863383e-07,3.2594371497108716e-07,1.7948689791657036e-18,-1.2505743791356524e-20,-4.040449204080472e-05,-5.6343754607146605e-06,3.997102787239508e-18,-1.0555421523701777e-05,1.4131634908363228e-05,3.378704076657376e-05,4.438507177200264e-18,-2.6040452456080327e-18,-0.021563463892347225
-3.215390972367641e-08,-1.1741180394353243e-18,-3.9785766421557526e-08,3.97031073233132e-08,7.25331502986553e-08,2.9696740921712885e-19,7.156492295274989e-19,-1.0046438632665527e-05,-5.6343754607146605e-06,3.997102787239508e-18,-1.0555421523701777e-05,1.4131634908363228e-05,3.378704076657376e-05,4.438507177200264e-18,-2.6040452456080327e-18,-0.021563463892347225
-9.812371729039512e-20,-1.4300855963136304e-18,-4.2864500123558314e-20,3.4595137365459412e-18,-8.306653209867378e-20,1.239359555085234e-18,-7.062398954703457e-19,1.043715826371913e-18,-5.6343754607146605e-06,3.997102787239508e-18,-1.0555421523701777e-05,1.4131634908363228e-05,3.378704076657376e-05,4.438507177200264e-18,-2.6040452456080327e-18,-0.021563463892347225
4.783265104029642e-20,4.896555765398963e-19,2.733675252933703e-20,-1.453569845864691e-18,-1.53027055462331e-19,-1.7305664697932676e-19,5.278885356853537e-19,-3.7451879294711273e-19,-5.6343754607146605e-06,3.997102787239508e-18,-1.0555421523701777e-05,1.4131634908363228e-05,3.378704076657376e-05,4.438507177200264e-18,-2.6040452456080327e-18,-0.021563463892347225
-3.2153909727381396e-08,1.0322670913640716e-18,-3.978576642034355e-08,3.970310732590445e-08,7.253315029818143e-08,-4.015809257454848e-19,-6.728750810103018e-19,-1.0046438632665998e-05,-5.6343754607146605e-06,3.997102787239508e-18,-1.0555421523701777e-05,1.4131634908363228e-05,3.378704076657376e-05,4.438507177200264e-18,-2.6040452456080327e-18,-0.021563463892347225
-3.215390972609675e-08,2.327663779315748e-19,-3.978576642051523e-08,3.970310732515145e-08,7.25331502984084e-08,-1.4369162475780754e-19,-1.956127773472527e-19,-1.0046438632665832e-05,-5.6343754607146605e-06,3.997102787239508e-18,-1.0555421523701777e-05,1.4131634908363228e-05,3.378704076657376e-05,4.438507177200264e-18,-2.6040452456080327e-18,-0.021563463892347225
-8.675337631902015e-08,-6.223249682752255e-18,-9.10591377869999e-08,8.570813596394888e-08,1.5176493406849662e-07,1.8190979228937615e-18,6.780646603512011e-19,-2.013649181458496e-05,-5.6343754607146605e-06,3.997102787239508e-18,-1.0555421523701777e-05,1.4131634908363228e-05,3.378704076657376e-05,4.438507177200264e-18,-2.6040452456080327e-18,-0.021563463892347225
-3.215390972337953e-08,-1.8503444765752984e-18,-3.9785766421728534e-08,3.9703107322175684e-08,7.253315029965414e-08,6.882742922499569e-19,9.531543197258493e-19,-1.0046438632665717e-05,-5.6343754607146605e-06,3.997102787239508e-18,-1.0555421523701777e-05,1.4131634908363228e-05,3.378704076657376e-05,4.438507177200264e-18,-2.6040452456080327e-18,-0.021563463892347225
1.109369529444696e-19,7.232358116612317e-19,8.281473014601138e-20,-3.0323288848758325e-18,8.055151929348655e-19,-1.2333722619697522e-19,9.894795084629622e-19,-5.554158353503736e-19,-5.6343754607146605e-06,3.997102787239508e-18,-1.0555421523701777e-05,1.4131634908363228e-05,3.378704076657376e-05,4.438507177200264e-18,-2.6040452456080327e-18,-0.021563463892347225
-8.675337632652271e-08,4.6822599246047064e-18,-9.105913779460588e-08,8.57081359642044e-08,1.51764934067946e-07,-1.3613227408756826e-18,1.0904760220750076e-19,-2.0136491814587077e-05,-5.6343754607146605e-06,3.997102787239508e-18,-1.0555421523701777e-05,1.4131634908363228e-05,3.378704076657376e-05,4.438507177200264e-18,-2.6040452456080327e-18,-0.021563463892347225
-8.675337632552037e-08,2.394441933024973e-18,-9.10591377946752e-08,8.57081359665839e-08,1.517649340679448e-07,-3.816904015560736e-19,-3.710009732896533e-19,-2.0136491814586013e-05,-5.6343754607146605e-06,3.997102787239508e-18,-1.0555421523701777e-05,1.4131634908363228e-05,3.378704076657376e-05,4.438507177200264e-18,-2.6040452456080327e-18,-0.021563463892347225
-8.675337632286352e-08,-1.3905978997780837e-18,-9.105913779190754e-08,8.570813596145784e-08,1.5176493406875465e-07,-2.8040087691652397e-19,1.4318003985747443e-18,-2.0136491814586444e-05,-5.6343754607146605e-06,3.997102787239508e-18,-1.0555421523701777e-05,1.4131634908363228e-05,3.378704076657376e-05,4.438507177200264e-18,-2.6040452456080327e-18,-0.021563463892347225
-1.0770217264698023e-07,2.1064345754411087e-18,-9.859870289282172e-08,8.938066709830011e-08,1.5543104135059067e-07,-9.907715664941981e-19,1.1208349705926717e-18,-2.0158393863988498e-05,-5.6343754607146605e-06,3.997102787239508e-18,-1.0555421523701777e-05,1.4131634908363228e-05,3.378704076657376e-05,4.438507177200264e-18,-2.6040452456080327e-18,-0.021563463892347225
-3.2153909723649237e-08,2.3432431917426298e-20,-3.9785766421790725e-08,3.9703107323773036e-08,7.253315029904719e-08,9.932070882061918e-19,6.818354165306158e-19,-1.004643863266562e-05,-5.6343754607146605e-06,3.997102787239508e-18,-1.0555421523701777e-05,1.4131634908363228e-05,3.378704076657376e-05,4.438507177200264e-18,-2.6040452456080327e-18,-0.021563463892347225
-3.215390972612141e-08,3.2574631185785836e-19,-3.978576642051161e-08,3.970310732509709e-08,7.253315029858099e-08,-8.670795024810702e-20,-1.5550251467045593e-19,-1.0046438632665839e-05,-5.6343754607146605e-06,3.997102787239508e-18,-1.0555421523701777e-05,1.4131634908363228e-05,3.378704076657376e-05,4.438507177200264e-18,-2.6040452456080327e-18,-0.021563463892347225
-3.215390972479198e-08,-6.973092160512994e-19,-3.9785766420839354e-08,3.9703107323823236e-08,7.253315029899982e-08,7.313068720532279e-20,3.729319867202188e-19,-1.0046438632665744e-05,-5.6343754607146605e-06,3.997102787239508e-18,-1.0555421523701777e-05,1.4131634908363228e-05,3.378704076657376e-05,4.438507177200264e-18,-2.6040452456080327e-18,-0.021563463892347225
1.3391434833188945e-19,4.375605723233024e-19,2.1436117942017803e-20,-2.4653257817918556e-18,6.251924574891704e-20,-5.271026402639887e-19,9.07736456117507e-19,-6.38837292774894e-19,-5.6343754607146605e-06,3.997102787239508e-18,-1.0555421523701777e-05,1.4131634908363228e-05,3.378704076657376e-05,4.438507177200264e-18,-2.6040452456080327e-18,-0.021563463892347225
-3.2153909725495444e-08,-4.335868575994695e-20,-3.978576642070512e-08,3.9703107324572205e-08,7.2533150298554e-08,5.622185113356267e-20,5.972924384522442e-20,-1.0046438632665786e-05,-5.6343754607146605e-06,3.997102787239508e-18,-1.0555421523701777e-05,1.4131634908363228e-05,3.378704076657376e-05,4.438507177200264e-18,-2.6040452456080327e-18,-0.021563463892347225
-3.215390972724302e-08,6.896838737437596e-19,-3.9785766420248324e-08,3.9703107325932745e-08,7.253315029849174e-08,-5.240375293836723e-19,-4.810023272325213e-19,-1.004643863266594e-05,-5.6343754607146605e-06,3.997102787239508e-18,-1.0555421523701777e-05,1.4131634908363228e-05,3.378704076657376e-05,4.438507177200264e-18,-2.6040452456080327e-18,-0.021563463892347225
-3.2153909723033834e-08,-1.1335996280977538e-18,-3.978576642145069e-08,3.9703107322947245e-08,7.253315029968464e-08,5.430607376956931e-19,7.562209539701392e-19,-1.0046438632665527e-05,-5.6343754607146605e-06,3.997102787239508e-18,-1.0555421523701777e-05,1.4131634908363228e-05,3.378704076657376e-05,4.438507177200264e-18,-2.6040452456080327e-18,-0.021563463892347225
-3.215390972475374e-08,-1.3874117026273144e-19,-3.978576642107156e-08,3.9703107324091944e-08,7.253315029861949e-08,1.6053464810375693e-19,4.709024086269392e-19,-1.0046438632665762e-05,-5.6343754607146605e-06,3.997102787239508e-18,-1.0555421523701777e-05,1.4131634908363228e-05,3.378704076657376e-05,4.438507177200264e-18,-2.6040452456080327e-18,-0.021563463892347225
6.031255526291849e-20,3.290460543516318e-19,1.066893154741303e-19,-1.5339829574622152e-18,5.214877313119283e-20,-3.381620077904741e-19,3.9578763606772603e-19,-2.5699831545958195e-19,-5.6343754607146605e-06,3.997102787239508e-18,-1.0555421523701777e-05,1.4131634908363228e-05,3.378704076657376e-05,4.438507177200264e-18,-2.6040452456080327e-18,-0.021563463892347225
-3.215390972796107e-08,1.6026722061654988e-18,-3.978576641998059e-08,3.970310732588226e-08,7.253315029867603e-08,-1.383940603219574e-19,-9.729364283186296e-19,-1.0046438632666006e-05,-5.6343754607146605e-06,3.997102787239508e-18,-1.0555421523701777e-05,1.4131634908363228e-05,3.378704076657376e-05,4.438507177200264e-18,-2.6040452456080327e-18,-0.021563463892347225
-8.675337633014367e-08,9.760877332690826e-18,-9.105913779674755e-08,8.570813596996975e-08,1.5176493406751743e-07,-2.2593629986981962e-18,-1.3628700958801948e-18,-2.013649181458641e-05,-5.6343754607146605e-06,3.997102787239508e-18,-1.0555421523701777e-05,1.4131634908363228e-05,3.378704076657376e-05,4.438507177200264e-18,-2.6040452456080327e-18,-0.021563463892347225
-3.21539097258044e-08,5.481944911201639e-20,-3.9785766420621435e-08,3.970310732485217e-08,7.253315029856305e-08,-4.048228753129544e-21,-4.3622508239465384e-20,-1.0046438632665827e-05,-5.6343754607146605e-06,3.997102787239508e-18,-1.0555421523701777e-05,1.4131634908363228e-05,3.378704076657376e-05,4.438507177200264e-18,-2.6040452456080327e-18,-0.021563463892347225
-3.215390972437534e-08,-5.813029986786297e-19,-3.978576642107149e-08,3.970310732397737e-08,7.253315029853718e-08,6.599448793600177e-19,6.525563580217259e-19,-1.0046438632665686e-05,-5.6343754607146605e-06,3.997102787239508e-18,-1.0555421523701777e-05,1.4131634908363228e-05,3.378704076657376e-05,4.438507177200264e-18,-2.6040452456080327e-18,-0.021563463892347225
-8.675337632327311e-08,-1.953216091959963e-18,-9.105913779181339e-08,8.570813596862487e-08,1.5176493406757185e-07,5.530433828134472e-19,-1.4065881769406205e-18,-2.013649181458458e-05,-5.6343754607146605e-06,3.997102787239508e-18,-1.0555421523701777e-05,1.4131634908363228e-05,3.378704076657376e-05,4.438507177200264e-18,-2.6040452456080327e-18,-0.021563463892347225
-3.215390972408802e-08,-9.18083841626058e-19,-3.978576642099817e-08,3.9703107322944995e-08,7.25331502988537e-08,5.002426463175044e-20,4.856599749726662e-19,-1.0046438632665673e-05,-5.6343754607146605e-06,3.997102787239508e-18,-1.0555421523701777e-05,1.4131634908363228e-05,3.378704076657376e-05,4.438507177200264e-18,-2.6040452456080327e-18,-0.021563463892347225
-8.67533763270078e-08,4.702332813517306e-18,-9.105913779529123e-08,8.570813596575943e-08,1.51764934068564e-07,-2.0086971371474087e-18,1.8023447493796906e-19,-2.0136491814586383e-05,-5.6343754607146605e-06,3.997102787239508e-18,-1.0555421523701777e-05,1.4131634908363228e-05,3.378704076657376e-05,4.438507177200264e-18,-2.6040452456080327e-18,-0.021563463892347225
-3.2153909722839605e-08,-1.6904422387006122e-18,-3.978576642106937e-08,3.970310732427746e-08,7.253315029881841e-08,3.8313862036929156e-19,1.068035163459723e-18,-1.0046438632665607e-05,-5.6343754607146605e-06,3.997102787239508e-18,-1.0555421523701777e-05,1.4131634908363228e-05,3.378704076657376e-05,4.438507177200264e-18,-2.6040452456080327e-18,-0.021563463892347225
1.0181107068162845e-19,2.559672392487825e-19,9.092316455239118e-20,-1.555976169835839e-18,6.916529356571227e-20,-4.851046789659916e-19,5.32729338336227e-19,-5.841899080911615e-19,-5.6343754607146605e-06,3.997102787239508e-18,-1.0555421523701777e-05,1.4131634908363228e-05,3.378704076657376e-05,4.438507177200264e-18,-2.6040452456080327e-18,-0.021563463892347225
-4.087909902492337e-08,-9.282128031143186e-19,-4.525364950089542e-08,4.304894877368189e-08,7.649233303591905e-08,1.9579335814573587e-19,9.046436863958019e-19,-1.0168882867952924e-05,-7.163302826296592e-06,4.42681803138044e-18,-1.200608632004595e-05,1.5322529350468227e-05,3.563128809312308e-05,4.440150465185815e-18,-2.6741393551723233e-18,-0.021826275615285627
-3.3992440979781725e-20,-1.6273534374043435e-19,-3.7302427069834096e-20,6.631100014092392e-19,-1.9630038947502994e-20,2.093198942113766e-19,-2.9906578610009317e-19,2.608183816548868e-19,-5.6343754607146605e-06,3.997102787239508e-18,-1.0555421523701777e-05,1.4131634908363228e-05,3.378704076657376e-05,4.438507177200264e-18,-2.6040452456080327e-18,-0.021563463892347225
-3.2153909723221525e-08,-1.2571446715317925e-18,-3.9785766421226415e-08,3.9703107322415984e-08,7.253315029894616e-08,6.622417692490072e-19,9.679876011541202e-19,-1.0046438632665644e-05,-5.6343754607146605e-06,3.997102787239508e-18,-1.0555421523701777e-05,1.4131634908363228e-05,3.378704076657376e-05,4.438507177200264e-18,-2.6040452456080327e-18,-0.021563463892347225
-3.2153909724150415e-08,-2.582288630872718e-19,-3.978576642089056e-08,3.9703107323034754e-08,7.253315029924366e-08,4.893711622390906e-19,6.679233712762454e-19,-1.0046438632665708e-05,-5.6343754607146605e-06,3.997102787239508e-18,-1.0555421523701777e-05,1.4131634908363228e-05,3.378704076657376e-05,4.438507177200264e-18,-2.6040452456080327e-18,-0.021563463892347225
7.227527463315279e-20,5.149578532430767e-19,1.3897688156111746e-19,-1.971204195187537e-18,-1.1452650123242536e-19,-3.189415851336463e-19,5.823297408778053e-19,-4.867635671521478e-19,-5.6343754607146605e-06,3.997102787239508e-18,-1.0555421523701777e-05,1.4131634908363228e-05,3.378704076657376e-05,4.438507177200264e-18,-2.6040452456080327e-18,-0.021563463892347225
1.3036022854983333e-19,7.800728267631242e-19,2.6904724134072923e-19,-3.200182591362987e-18,-3.557243645884578e-20,-1.0795293841879932e-18,8.583638555860703e-19,-8.017826585925729e-19,-5.6343754607146605e-06,3.997102787239508e-18,-1.0555421523701777e-05,1.4131634908363228e-05,3.378704076657376e-05,4.438507177200264e-18,-2.6040452456080327e-18,-0.021563463892347225
-3.215390972507075e-08,-3.87364423068589e-19,-3.9785766420769196e-08,3.970310732426283e-08,7.253315029880734e-08,1.5355960781744402e-19,2.5114067647031214e-19,-1.0046438632665737e-05,-5.6343754607146605e-06,3.997102787239508e-18,-1.0555421523701777e-05,1.4131634908363228e-05,3.378704076657376e-05,4.438507177200264e-18,-2.6040452456080327e-18,-0.021563463892347225
-8.6753376318681e-08,-9.405282944487492e-18,-9.10591377885535e-08,8.570813596205243e-08,1.5176493406858236e-07,8.096368169266394e-19,1.477980462927779e-18,-2.013649181458473e-05,-5.6343754607146605e-06,3.997102787239508e-18,-1.0555421523701777e-05,1.4131634908363228e-05,3.378704076657376e-05,4.438507177200264e-18,-2.6040452456080327e-18,-0.021563463892347225
-2.745382913229234e-07,-4.1765522345311845e-18,-1.7149440377406838e-07,1.4432646652714806e-07,2.428848054901701e-07,-3.104583999610787e-18,-1.4242666667191406e-18,-3.029248937128519e-05,-5.6343754607146605e-06,3.997102787239508e-18,-1.0555421523701777e-05,1.4131634908363228e-05,3.378704076657376e-05,4.438507177200264e-18,-2.6040452456080327e-18,-0.021563463892347225
-8.675337632948953e-08,7.480920004385581e-18,-9.105913779791102e-08,8.570813596522401e-08,1.5176493406844276e-07,-8.0765683147327895e-19,5.510261495731952e-19,-2.0136491814587294e-05,-5.6343754607146605e-06,3.997102787239508e-18,-1.0555421523701777e-05,1.4131634908363228e-05,3.378704076657376e-05,4.438507177200264e-18,-2.6040452456080327e-18,-0.021563463892347225
-3.215390972464505e-08,-1.7378521816302623e-19,-3.9785766421208674e-08,3.970310732425569e-08,7.253315029884943e-08,3.6650587636461807e-20,4.703653020851258e-19,-1.0046438632665754e-05,-5.6343754607146605e-06,3.997102787239508e-18,-1.0555421523701777e-05,1.4131634908363228e-05,3.378704076657376e-05,4.438507177200264e-18,-2.6040452456080327e-18,-0.021563463892347225
-3.2153909728650946e-08,7.860725196935048e-19,-3.978576642008034e-08,3.9703107327418864e-08,7.253315029778938e-08,-7.119079722925325e-19,-1.522574196396231e-18,-1.0046438632665996e-05,-5.6343754607146605e-06,3.997102787239508e-18,-1.0555421523701777e-05,1.4131634908363228e-05,3.378704076657376e-05,4.438507177200264e-18,-2.6040452456080327e-18,-0.021563463892347225
-8.675337631768166e-08,-8.881715966393867e-18,-9.10591377880125e-08,8.570813596331079e-08,1.5176493406817314e-07,3.3775891654126086e-18,9.345811467042715e-19,-2.0136491814584404e-05,-5.6343754607146605e-06,3.997102787239508e-18,-1.0555421523701777e-05,1.4131634908363228e-05,3.378704076657376e-05,4.438507177200264e-18,-2.6040452456080327e-18,-0.021563463892347225
-2.1799635681901983e-07,8.212024756053473e-18,-1.6695028133864132e-07,1.4356847351453607e-07,2.430115979569466e-07,-1.6700877524026295e-18,-7.824321494792401e-19,-3.039342554625201e-05,-7.164313588244391e-06,4.280460930984621e-18,-1.2006545022122485e-05,1.5322811762057428e-05,3.563164557239918e-05,4.526348667173579e-18,-2.6455305547046203e-18,-0.021826285037919564
-3.215390972318781e-08,-1.2118231636267278e-18,-3.9785766421001105e-08,3.970310732285703e-08,7.25331502991449e-08,-5.1676580291911805e-19,8.667162938773006e-19,-1.0046438632665549e-05,-5.6343754607146605e-06,3.997102787239508e-18,-1.0555421523701777e-05,1.4131634908363228e-05,3.378704076657376e-05,4.438507177200264e-18,-2.6040452456080327e-18,-0.021563463892347225
-3.215390972652749e-08,4.930597719225746e-19,-3.97857664204395e-08,3.970310732563164e-08,7.253315029816231e-08,-1.847577300162875e-19,-3.4753056547491117e-19,-1.0046438632665939e-05,-5.6343754607146605e-06,3.997102787239508e-18,-1.0555421523701777e-05,1.4131634908363228e-05,3.378704076657376e-05,4.438507177200264e-18,-2.6040452456080327e-18,-0.021563463892347225
-1.9990273283857275e-07,5.188754065590859e-18,-1.5963492555438723e-07,1.3964484843600794e-07,2.386682308421939e-07,-5.368607295774959e-19,-5.008648383737842e-19,-3.0270444179005822e-05,-5.6343754607146605e-06,3.997102787239508e-18,-1.0555421523701777e-05,1.4131634908363228e-05,3.378704076657376e-05,4.438507177200264e-18,-2.6040452456080327e-18,-0.021563463892347225
-8.675337632500409e-08,1.6309438033157651e-18,-9.105913779370705e-08,8.570813596649137e-08,1.5176493406791712e-07,6.132732826440641e-20,-2.7847480084692877e-19,-2.013649181458577e-05,-5.6343754607146605e-06,3.997102787239508e-18,-1.0555421523701777e-05,1.4131634908363228e-05,3.378704076657376e-05,4.438507177200264e-18,-2.6040452456080327e-18,-0.021563463892347225
-3.215390972672725e-08,3.2952163303955294e-19,-3.978576642016386e-08,3.9703107325619767e-08,7.253315029843252e-08,-2.744863378644615e-19,-4.1138466558743883e-19,-1.0046438632665935e-05,-5.6343754607146605e-06,3.997102787239508e-18,-1.0555421523701777e-05,1.4131634908363228e-05,3.378704076657376e-05,4.438507177200264e-18,-2.6040452456080327e-18,-0.021563463892347225
-3.2153909722399817e-08,-3.011139977954783e-18,-3.978576642135094e-08,3.970310732107841e-08,7.253315029803625e-08,2.735178658192321e-20,1.20504254894508e-18,-1.004643863266558e-05,-5.6343754607146605e-06,3.997102787239508e-18,-1.0555421523701777e-05,1.4131634908363228e-05,3.378704076657376e-05,4.438507177200264e-18,-2.6040452456080327e-18,-0.021563463892347225
-3.2153909723470605e-08,-6.60397132560771e-19,-3.9785766421564785e-08,3.9703107322238054e-08,7.25331502992405e-08,5.321029478332755e-19,1.0987724943777539e-18,-1.004643863266558e-05,-5.6343754607146605e-06,3.997102787239508e-18,-1.0555421523701777e-05,1.4131634908363228e-05,3.378704076657376e-05,4.438507177200264e-18,-2.6040452456080327e-18,-0.021563463892347225
-2.6875112465117113e-19,-5.388208517124335e-19,-3.075221843413384e-19,3.2231322941390078e-18,1.1814719025280196e-19,4.763442953322724e-19,-1.0689759771866994e-18,1.2265395978938864e-18,-5.6343754607146605e-06,3.997102787239508e-18,-1.0555421523701777e-05,1.4131634908363228e-05,3.378704076657376e-05,4.438507177200264e-18,-2.6040452456080327e-18,-0.021563463892347225
-8.67533763237753e-08,-1.2604464532880149e-19,-9.105913779236559e-08,8.570813596551421e-08,1.5176493406815162e-07,4.0601870728151e-20,-1.4598268023041967e-20,-2.0136491814585576e-05,-5.6343754607146605e-06,3.997102787239508e-18,-1.0555421523701777e-05,1.4131634908363228e-05,3.378704076657376e-05,4.438507177200264e-18,-2.6040452456080327e-18,-0.021563463892347225
-2.1799635681688028e-07,9.367396430054752e-18,-1.6695028133816823e-07,1.4356847351259755e-07,2.4301159795945203e-07,-5.503354027204316e-19,-3.7396371110135675e-19,-3.0393425546252325e-05,-5.6343754607146605e-06,3.997102787239508e-18,-1.0555421523701777e-05,1.4131634908363228e-05,3.378704076657376e-05,4.438507177200264e-18,-2.6040452456080327e-18,-0.021563463892347225
-9.164392323918397e-20,-5.228923768450055e-19,-8.704406342838686e-20,2.360911219986149e-18,-7.580516185605547e-19,4.305206187872747e-19,-1.0450072595238766e-18,5.700379275817527e-19,-5.6343754607146605e-06,3.997102787239508e-18,-1.0555421523701777e-05,1.4131634908363228e-05,3.378704076657376e-05,4.438507177200264e-18,-2.6040452456080327e-18,-0.021563463892347225
-3.2153909725634324e-08,7.766031264013672e-21,-3.978576642066285e-08,3.9703107324727914e-08,7.25331502985701e-08,1.5575947534434888e-20,1.0994192196357318e-21,-1.0046438632665805e-05,-5.6343754607146605e-06,3.997102787239508e-18,-1.0555421523701777e-05,1.4131634908363228e-05,3.378704076657376e-05,4.438507177200264e-18,-2.6040452456080327e-18,-0.021563463892347225
-3.215390972723094e-08,6.953392766313489e-19,-3.978576642047987e-08,3.970310732643171e-08,7.253315029808509e-08,-1.8265003855708595e-19,-7.378798826613154e-19,-1.0046438632665954e-05,-5.6343754607146605e-06,3.997102787239508e-18,-1.0555421523701777e-05,1.4131634908363228e-05,3.378704076657376e-05,4.438507177200264e-18,-2.6040452456080327e-18,-0.021563463892347225
-6.661882040304929e-06,2.0252805236684555e-18,-5.012849972035015e-06,4.542489665095775e-06,7.953417383465121e-06,5.4491384433063e-19,-3.952868987274548e-19,-0.0010474641067780498,-5.6343754607146605e-06,3.997102787239508e-18,-1.0555421523701777e-05,1.4131634908363228e-05,3.378704076657376e-05,4.438507177200264e-18,-2.6040452456080327e-18,-0.021563463892347225
-1.729471254865734e-19,-1.0288974063798095e-18,-6.591650301502824e-20,3.732312877441368e-18,-2.9491290637888436e-19,5.74794280221584e-19,-1.2203910047183456e-18,7.882518902167975e-19,-5.6343754607146605e-06,3.997102787239508e-18,-1.0555421523701777e-05,1.4131634908363228e-05,3.378704076657376e-05,4.438507177200264e-18,-2.6040452456080327e-18,-0.021563463892347225
-1.999027328323996e-07,-2.813302134014546e-18,-1.5963492555127374e-07,1.396448484344204e-07,2.386682308396826e-07,5.795816433065437e-19,2.1418893718249814e-19,-3.02704441790048e-05,-5.6343754607146605e-06,3.997102787239508e-18,-1.0555421523701777e-05,1.4131634908363228e-05,3.378704076657376e-05,4.438507177200264e-18,-2.6040452456080327e-18,-0.021563463892347225
-8.675337632100875e-08,-4.292880310624678e-18,-9.105913778994544e-08,8.570813596220616e-08,1.5176493406830318e-07,2.517744755949237e-19,1.2566409422836979e-18,-2.013649181458563e-05,-5.6343754607146605e-06,3.997102787239508e-18,-1.0555421523701777e-05,1.4131634908363228e-05,3.378704076657376e-05,4.438507177200264e-18,-2.6040452456080327e-18,-0.021563463892347225
-4.404631117757325e-07,3.888015130749354e-18,-2.4334498674224045e-07,1.9898337491924032e-07,3.301697191886811e-07,8.717025167307894e-19,-5.506001520715425e-19,-4.042653733717829e-05,-5.6343754607146605e-06,3.997102787239508e-18,-1.0555421523701777e-05,1.4131634908363228e-05,3.378704076657376e-05,4.438507177200264e-18,-2.6040452456080327e-18,-0.021563463892347225
-3.248059439096474e-06,1.2518755359793243e-18,-4.0188720349172195e-06,4.0104759821857335e-06,7.32664686583635e-06,-8.473141809838811e-19,-1.186048458608218e-18,-0.0010147922109804137,-5.6343754607146605e-06,3.997102787239508e-18,-1.0555421523701777e-05,1.4131634908363228e-05,3.378704076657376e-05,4.438507177200264e-18,-2.6040452456080327e-18,-0.021563463892347225
-3.215390972409003e-08,-1.51159705535201e-19,-3.978576642170659e-08,3.9703107323542994e-08,7.253315029909725e-08,5.282060573502836e-19,6.201293910524659e-19,-1.0046438632665695e-05,-5.6343754607146605e-06,3.997102787239508e-18,-1.0555421523701777e-05,1.4131634908363228e-05,3.378704076657376e-05,4.438507177200264e-18,-2.6040452456080327e-18,-0.021563463892347225
3.991877118821776e-21,3.154816684357761e-19,-2.261606633554293e-21,-6.097637723204655e-19,2.830501308278305e-20,-2.2648271901127813e-19,1.5460154660944413e-19,-1.546284435203642e-19,-5.6343754607146605e-06,3.997102787239508e-18,-1.0555421523701777e-05,1.4131634908363228e-05,3.378704076657376e-05,4.438507177200264e-18,-2.6040452456080327e-18,-0.021563463892347225
-1.3214002991394841e-19,-6.425768815013646e-19,-6.824262123784509e-20,2.9698643477293017e-18,-5.365409098683813e-20,1.1882190128308337e-18,-9.343678923490956e-19,7.881638651658162e-19,-5.6343754607146605e-06,3.997102787239508e-18,-1.0555421523701777e-05,1.4131634908363228e-05,3.378704076657376e-05,4.438507177200264e-18,-2.6040452456080327e-18,-0.021563463892347225
-3.215390972316869e-08,-1.679730034992823e-18,-3.978576642154247e-08,3.970310732351783e-08,7.25331502991367e-08,-1.6192835829484265e-19,7.845725190200125e-19,-1.0046438632665581e-05,-5.6343754607146605e-06,3.997102787239508e-18,-1.0555421523701777e-05,1.4131634908363228e-05,3.378704076657376e-05,4.438507177200264e-18,-2.6040452456080327e-18,-0.021563463892347225
-3.2153909725623756e-08,-5.983083151554641e-21,-3.9785766420661736e-08,3.970310732471557e-08,7.253315029858423e-08,4.1822280587496465e-21,1.2087748385148249e-20,-1.0046438632665803e-05,-5.6343754607146605e-06,3.997102787239508e-18,-1.0555421523701777e-05,1.4131634908363228e-05,3.378704076657376e-05,4.438507177200264e-18,-2.6040452456080327e-18,-0.021563463892347225
-3.2153909723376e-08,-1.6926098896917732e-19,-3.9785766421512256e-08,3.970310732310361e-08,7.253315029761541e-08,7.862912616116615e-19,1.2301679594153692e-18,-1.0046438632665607e-05,-5.6343754607146605e-06,3.997102787239508e-18,-1.0555421523701777e-05,1.4131634908363228e-05,3.378704076657376e-05,4.438507177200264e-18,-2.6040452456080327e-18,-0.021563463892347225
-3.4451009367777815e-06,3.448216488195763e-18,-1.033161235729851e-06,5.7121553023654e-07,6.984714477488029e-07,3.427462877844151e-19,-8.157300266458711e-19,-4.2617205582536565e-05,-5.6343754607146605e-06,3.997102787239508e-18,-1.0555421523701777e-05,1.4131634908363228e-05,3.378704076657376e-05,4.438507177200264e-18,-2.6040452456080327e-18,-0.021563463892347225
-3.215390972322404e-08,-1.2773352810087935e-18,-3.978576642117834e-08,3.970310732273198e-08,7.25331502982053e-08,7.046280158177554e-19,1.1040736098524261e-18,-1.0046438632665596e-05,-5.6343754607146605e-06,3.997102787239508e-18,-1.0555421523701777e-05,1.4131634908363228e-05,3.378704076657376e-05,4.438507177200264e-18,-2.6040452456080327e-18,-0.021563463892347225
-3.215390972467826e-08,-6.930332254642919e-19,-3.978576642077345e-08,3.970310732394991e-08,7.253315029861978e-08,1.7480489312752195e-19,2.935577558303008e-19,-1.0046438632665705e-05,-5.6343754607146605e-06,3.997102787239508e-18,-1.0555421523701777e-05,1.4131634908363228e-05,3.378704076657376e-05,4.438507177200264e-18,-2.6040452456080327e-18,-0.021563463892347225
-1.4485788274381403e-19,-1.1016415749377648e-18,6.088377992288882e-20,2.2991289152312925e-18,7.574584775720958e-20,5.0113535382594047e-20,-9.071941075527336e-19,9.50203091070532e-19,-5.6343754607146605e-06,3.997102787239508e-18,-1.0555421523701777e-05,1.4131634908363228e-05,3.378704076657376e-05,4.438507177200264e-18,-2.6040452456080327e-18,-0.021563463892347225
-3.2153909727379384e-08,1.0463850472042907e-18,-3.978576642012606e-08,3.9703107325945107e-08,7.253315029809584e-08,-6.737553871591621e-19,-7.132870791120896e-19,-1.0046438632665864e-05,-5.6343754607146605e-06,3.997102787239508e-18,-1.0555421523701777e-05,1.4131634908363228e-05,3.378704076657376e-05,4.438507177200264e-18,-2.6040452456080327e-18,-0.021563463892347225
-3.215390972581748e-08,1.1841018903829026e-19,-3.9785766420596044e-08,3.970310732488294e-08,7.253315029852459e-08,-6.650117331668408e-20,-5.176747663256775e-20,-1.004643863266582e-05,-5.6343754607146605e-06,3.997102787239508e-18,-1.0555421523701777e-05,1.4131634908363228e-05,3.378704076657376e-05,4.438507177200264e-18,-2.6040452456080327e-18,-0.021563463892347225
-1.9990273283836946e-07,4.826353108801981e-18,-1.5963492555467342e-07,1.3964484843722804e-07,2.3866823084066733e-07,-1.2507446196102022e-18,4.808509606265022e-20,-3.0270444179005764e-05,-5.6343754607146605e-06,3.997102787239508e-18,-1.0555421523701777e-05,1.4131634908363228e-05,3.378704076657376e-05,4.438507177200264e-18,-2.6040452456080327e-18,-0.021563463892347225
-5.602352651605752e-20,-4.925843838159374e-19,4.467013914372531e-20,1.7308268126086411e-18,6.893125811863111e-21,2.611316932240566e-19,-6.471817890118526e-19,3.394326909115286e-19,-5.6343754607146605e-06,3.997102787239508e-18,-1.0555421523701777e-05,1.4131634908363228e-05,3.378704076657376e-05,4.438507177200264e-18,-2.6040452456080327e-18,-0.021563463892347225
7.31194702141112e-20,4.1135242275749705e-19,1.0325676109827356e-19,-1.38943961003741e-18,-4.407662076077078e-19,-6.299183190040244e-19,4.603840399924482e-19,-5.787887454892472e-19,-5.6343754607146605e-06,3.997102787239508e-18,-1.0555421523701777e-05,1.4131634908363228e-05,3.378704076657376e-05,4.438507177200264e-18,-2.6040452456080327e-18,-0.021563463892347225
-1.9990273284846144e-07,5.678881372041819e-18,-1.5963492556011177e-07,1.396448484402261e-07,2.386682308410306e-07,-1.846689538809673e-18,-2.5493194479669836e-18,-3.027044417900647e-05,-5.6343754607146605e-06,3.997102787239508e-18,-1.0555421523701777e-05,1.4131634908363228e-05,3.378704076657376e-05,4.438507177200264e-18,-2.6040452456080327e-18,-0.021563463892347225
-8.675337632906987e-08,7.806721320152572e-18,-9.105913779827077e-08,8.57081359664296e-08,1.5176493406990333e-07,-1.2532674956400532e-18,-8.077964448209296e-19,-2.013649181458685e-05,-5.6343754607146605e-06,3.997102787239508e-18,-1.0555421523701777e-05,1.4131634908363228e-05,3.378704076657376e-05,4.438507177200264e-18,-2.6040452456080327e-18,-0.021563463892347225
0.14775255813398153,-2.080536697186638e-16,-0.0020696543706128744,-0.014981020752346346,-0.01416934287643236,1.6119598162417135e-18,4.0873921885820854e-18,-7.212764702637476e-05,-5.6343754607146605e-06,3.997102787239508e-18,-1.0555421523701777e-05,1.4131634908363228e-05,3.378704076657376e-05,4.438507177200264e-18,-2.6040452456080327e-18,-0.021563463892347225
-8.675337632478268e-08,2.501242089564418e-19,-9.105913779352966e-08,8.570813596904615e-08,1.517649340678119e-07,5.206647599860714e-19,-1.3355921060568252e-18,-2.0136491814584692e-05,-5.6343754607146605e-06,3.997102787239508e-18,-1.0555421523701777e-05,1.4131634908363228e-05,3.378704076657376e-05,4.438507177200264e-18,-2.6040452456080327e-18,-0.021563463892347225
-1.999027328288471e-07,-5.662911168911034e-18,-1.5963492554912035e-07,1.3964484843251629e-07,2.3866823083888575e-07,1.3270570183971462e-18,3.956629900327276e-19,-3.027044417900446e-05,-5.6343754607146605e-06,3.997102787239508e-18,-1.0555421523701777e-05,1.4131634908363228e-05,3.378704076657376e-05,4.438507177200264e-18,-2.6040452456080327e-18,-0.021563463892347225
-3.215390972836514e-08,1.1574339299357039e-18,-3.9785766419481633e-08,3.970310732683771e-08,7.253315029828733e-08,-1.9247273961727366e-20,-1.354526830582386e-18,-1.0046438632666044e-05,-5.6343754607146605e-06,3.997102787239508e-18,-1.0555421523701777e-05,1.4131634908363228e-05,3.378704076657376e-05,4.438507177200264e-18,-2.6040452456080327e-18,-0.021563463892347225
-3.215390972597599e-08,1.7572300374315031e-19,-3.978576642054158e-08,3.9703107324971184e-08,7.253315029853911e-08,-9.924179235270841e-20,-1.2868578079115583e-19,-1.0046438632665852e-05,-5.6343754607146605e-06,3.997102787239508e-18,-1.0555421523701777e-05,1.4131634908363228e-05,3.378704076657376e-05,4.438507177200264e-18,-2.6040452456080327e-18,-0.021563463892347225
-3.2153909727749736e-08,7.354826032061043e-19,-3.9785766419822346e-08,3.970310732623263e-08,7.253315029789203e-08,-8.853123551246741e-20,-8.758085746271482e-19,-1.0046438632665966e-05,-5.6343754607146605e-06,3.997102787239508e-18,-1.0555421523701777e-05,1.4131634908363228e-05,3.378704076657376e-05,4.438507177200264e-18,-2.6040452456080327e-18,-0.021563463892347225
-7.065720379203843e-20,-6.890807675986708e-20,-7.838968279370552e-20,1.3418398248887146e-18,-2.0188931135411264e-19,2.3806348146497638e-19,-5.639538874230884e-19,3.1541075032371793e-19,-5.6343754607146605e-06,3.997102787239508e-18,-1.0555421523701777e-05,1.4131634908363228e-05,3.378704076657376e-05,4.438507177200264e-18,-2.6040452456080327e-18,-0.021563463892347225
-3.2153909725185476e-08,-2.7350443283128435e-19,-3.978576642087246e-08,3.9703107324331515e-08,7.253315029878414e-08,1.0854648584917508e-20,1.7568261330494376e-19,-1.0046438632665756e-05,-5.6343754607146605e-06,3.997102787239508e-18,-1.0555421523701777e-05,1.4131634908363228e-05,3.378704076657376e-05,4.438507177200264e-18,-2.6040452456080327e-18,-0.021563463892347225
-8.511629569288725e-20,-5.819544969088697e-19,-1.2099054514694038e-19,2.9745370928584664e-18,-3.2272022379962155e-19,8.726169038447128e-19,-8.93838609180055e-19,5.545784393384754e-19,-5.6343754607146605e-06,3.997102787239508e-18,-1.0555421523701777e-05,1.4131634908363228e-05,3.378704076657376e-05,4.438507177200264e-18,-2.6040452456080327e-18,-0.021563463892347225
-8.675337632162366e-08,-2.8327591120887607e-18,-9.105913779015593e-08,8.570813596229399e-08,1.5176493406831954e-07,1.2322623005439452e-19,1.088347448447171e-18,-2.013649181458593e-05,-5.6343754607146605e-06,3.997102787239508e-18,-1.0555421523701777e-05,1.4131634908363228e-05,3.378704076657376e-05,4.438507177200264e-18,-2.6040452456080327e-18,-0.021563463892347225
-3.215390972645553e-08,2.908621197401262e-19,-3.9785766420186074e-08,3.970310732524966e-08,7.253315029856968e-08,-3.83645188015104e-19,-1.830907419163528e-19,-1.00464386326659e-05,-5.6343754607146605e-06,3.997102787239508e-18,-1.0555421523701777e-05,1.4131634908363228e-05,3.378704076657376e-05,4.438507177200264e-18,-2.6040452456080327e-18,-0.021563463892347225
-1.2845000429627102e-19,-1.033343343483565e-19,-6.599640044261634e-20,1.2116889119706994e-18,1.0794608297971054e-19,2.282580237029364e-19,-4.0671825248777135e-19,4.237566472942939e-19,-5.6343754607146605e-06,3.997102787239508e-18,-1.0555421523701777e-05,1.4131634908363228e-05,3.378704076657376e-05,4.438507177200264e-18,-2.6040452456080327e-18,-0.021563463892347225
-3.215390972512107e-08,-1.287406008565553e-19,-3.9785766420882646e-08,3.970310732443148e-08,7.25331502986836e-08,2.829652203600792e-20,2.4760505274256316e-19,-1.0046438632665756e-05,-5.6343754607146605e-06,3.997102787239508e-18,-1.0555421523701777e-05,1.4131634908363228e-05,3.378704076657376e-05,4.438507177200264e-18,-2.6040452456080327e-18,-0.021563463892347225
-3.2153909725989575e-08,2.812056295230833e-19,-3.978576642054429e-08,3.970310732502869e-08,7.253315029853621e-08,-4.0822250274128396e-20,-1.1024305883009645e-19,-1.0046438632665827e-05,-5.6343754607146605e-06,3.997102787239508e-18,-1.0555421523701777e-05,1.4131634908363228e-05,3.378704076657376e-05,4.438507177200264e-18,-2.6040452456080327e-18,-0.021563463892347225
-3.2153909727368816e-08,4.552998553673007e-19,-3.9785766420119456e-08,3.970310732606968e-08,7.253315029830012e-08,-7.213005882031916e-20,-8.929438215849873e-19,-1.0046438632665959e-05,-5.6343754607146605e-06,3.997102787239508e-18,-1.0555421523701777e-05,1.4131634908363228e-05,3.378704076657376e-05,4.438507177200264e-18,-2.6040452456080327e-18,-0.021563463892347225
-6.865581142169616e-06,7.445525410693071e-18,-5.481728813648993e-06,4.795120955980034e-06,8.195255798915021e-06,-8.061233094379639e-19,-1.5777311913431782e-18,-0.001039390083560764,-5.6343754607146605e-06,3.997102787239508e-18,-1.0555421523701777e-05,1.4131634908363228e-05,3.378704076657376e-05,4.438507177200264e-18,-2.6040452456080327e-18,-0.021563463892347225
-2.1799635681148404e-07,6.975899043367551e-19,-1.6695028133531947e-07,1.4356847351125564e-07,2.4301159795780185e-07,-2.2808266363374886e-19,-5.913214462107214e-19,-3.0393425546250824e-05,-5.6343754607146605e-06,3.997102787239508e-18,-1.0555421523701777e-05,1.4131634908363228e-05,3.378704076657376e-05,4.438507177200264e-18,-2.6040452456080327e-18,-0.021563463892347225
-3.215390972728982e-08,1.2864330815788882e-18,-3.978576642026499e-08,3.970310732641772e-08,7.253315029812712e-08,-2.883358475509944e-20,-6.140141036623452e-19,-1.0046438632665974e-05,-5.6343754607146605e-06,3.997102787239508e-18,-1.0555421523701777e-05,1.4131634908363228e-05,3.378704076657376e-05,4.438507177200264e-18,-2.6040452456080327e-18,-0.021563463892347225
-1.7964398572756923e-19,-7.715966922123217e-19,-1.3060376807686176e-19,3.3044732303423416e-18,-2.0605073082796432e-19,7.201440335343327e-19,-8.588494119811085e-19,9.97763000542255e-19,-5.6343754607146605e-06,3.997102787239508e-18,-1.0555421523701777e-05,1.4131634908363228e-05,3.378704076657376e-05,4.438507177200264e-18,-2.6040452456080327e-18,-0.021563463892347225
-3.2153909726982874e-08,6.10105992606607e-19,-3.978576642013709e-08,3.97031073258485e-08,7.253315029791273e-08,-4.491378402428838e-19,-5.234172270887072e-19,-1.004643863266592e-05,-5.6343754607146605e-06,3.997102787239508e-18,-1.0555421523701777e-05,1.4131634908363228e-05,3.378704076657376e-05,4.438507177200264e-18,-2.6040452456080327e-18,-0.021563463892347225
-3.2153909725149246e-08,-6.039114080660648e-20,-3.978576642076724e-08,3.9703107324376415e-08,7.25331502985857e-08,1.104441659744121e-19,1.8820760161196406e-19,-1.0046438632665757e-05,-5.6343754607146605e-06,3.997102787239508e-18,-1.0555421523701777e-05,1.4131634908363228e-05,3.378704076657376e-05,4.438507177200264e-18,-2.6040452456080327e-18,-0.021563463892347225
1.0377333075584648e-19,1.515025729286973e-19,8.974679577429553e-20,-1.3276755834051556e-18,1.754097583650592e-19,2.032167404921995e-20,5.656040009422868e-19,-3.2388251265912687e-19,-5.6343754607146605e-06,3.997102787239508e-18,-1.0555421523701777e-05,1.4131634908363228e-05,3.378704076657376e-05,4.438507177200264e-18,-2.6040452456080327e-18,-0.021563463892347225
-1.9990273282959987e-07,-1.0098389902275412e-17,-1.596349255486599e-07,1.3964484843822455e-07,2.386682308395539e-07,2.1329680294775576e-18,-1.6010670901441485e-18,-3.027044417900305e-05,-5.6343754607146605e-06,3.997102787239508e-18,-1.0555421523701777e-05,1.4131634908363228e-05,3.378704076657376e-05,4.438507177200264e-18,-2.6040452456080327e-18,-0.021563463892347225
-2.2431220530389325e-07,-5.835640284133799e-18,-1.6800640959247319e-07,1.4387986756682514e-07,2.4321215989337403e-07,1.3810752714409743e-18,3.790190783584519e-19,-3.0393692495477318e-05,-5.6343754607146605e-06,3.997102787239508e-18,-1.0555421523701777e-05,1.4131634908363228e-05,3.378704076657376e-05,4.438507177200264e-18,-2.6040452456080327e-18,-0.021563463892347225
0.0016155125236668637,4.9715817729663146e-18,0.17231154183855765,0.008124481992174335,-0.014559408136686144,3.807822572473226e-17,2.6166955264186465e-17,-0.0001028903885023413,-5.6343754607146605e-06,3.997102787239508e-18,-1.0555421523701777e-05,1.4131634908363228e-05,3.378704076657376e-05,4.438507177200264e-18,-2.6040452456080327e-18,-0.021563463892347225
-3.215390972355665e-08,-1.206471476362664e-18,-3.97857664209199e-08,3.970310732308545e-08,7.253315029898601e-08,8.750541473549666e-19,7.56218422933467e-19,-1.004643863266558e-05,-5.6343754607146605e-06,3.997102787239508e-18,-1.0555421523701777e-05,1.4131634908363228e-05,3.378704076657376e-05,4.438507177200264e-18,-2.6040452456080327e-18,-0.021563463892347225
-3.248059439093511e-06,7.679745114482943e-19,-4.018872034918436e-06,4.010475982184314e-06,7.3266468658368545e-06,3.2565991164613605e-19,-3.6968243045198074e-19,-0.001014792210980414,-5.6343754607146605e-06,3.997102787239508e-18,-1.0555421523701777e-05,1.4131634908363228e-05,3.378704076657376e-05,4.438507177200264e-18,-2.6040452456080327e-18,-0.021563463892347225
-6.452070441032317e-20,-4.092652530301187e-19,4.082514606872331e-23,1.1222978164471809e-18,1.460119930772873e-19,1.9216192432512102e-19,-3.6824250352469865e-19,2.6524931939293047e-19,-5.6343754607146605e-06,3.997102787239508e-18,-1.0555421523701777e-05,1.4131634908363228e-05,3.378704076657376e-05,4.438507177200264e-18,-2.6040452456080327e-18,-0.021563463892347225
-3.215390972521667e-08,-1.6617922456503355e-19,-3.9785766420816e-08,3.97031073244782e-08,7.253315029859806e-08,4.288659279950263e-20,1.5870041356340185e-19,-1.0046438632665771e-05,-5.6343754607146605e-06,3.997102787239508e-18,-1.0555421523701777e-05,1.4131634908363228e-05,3.378704076657376e-05,4.438507177200264e-18,-2.6040452456080327e-18,-0.021563463892347225
-4.534265203811353e-06,4.268524736578326e-18,-4.719522663523364e-06,4.430420380761174e-06,7.834432649818742e-06,-2.831280542770791e-19,-7.959270309518945e-19,-0.0010376313431650689,-7.767768178559015e-06,7.643653773008907e-18,-1.2257614993453584e-05,1.544557199541188e-05,3.575537344703956e-05,4.338761952314344e-18,-2.742156269614217e-18,-0.021830002781799484
-8.675337632490144e-08,1.6637871886849536e-18,-9.10591377931886e-08,8.570813596564472e-08,1.5176493406811583e-07,-4.532876086061801e-19,-2.0271310397906737e-19,-2.0136491814585807e-05,-5.6343754607146605e-06,3.997102787239508e-18,-1.0555421523701777e-05,1.4131634908363228e-05,3.378704076657376e-05,4.438507177200264e-18,-2.6040452456080327e-18,-0.021563463892347225
1.9103707631776325e-19,3.710382849620945e-20,1.8066387394300879e-19,-2.5860142831601513e-18,2.44174888664079e-19,-6.847197554735244e-19,8.0713397066941525e-19,-6.788518105284444e-19,-5.6343754607146605e-06,3.997102787239508e-18,-1.0555421523701777e-05,1.4131634908363228e-05,3.378704076657376e-05,4.438507177200264e-18,-2.6040452456080327e-18,-0.021563463892347225
-3.2153909727019104e-08,7.01367330703698e-19,-3.978576642022591e-08,3.970310732569402e-08,7.253315029807511e-08,-2.293444492571936e-21,-3.6927761782820255e-19,-1.0046438632665962e-05,-5.6343754607146605e-06,3.997102787239508e-18,-1.0555421523701777e-05,1.4131634908363228e-05,3.378704076657376e-05,4.438507177200264e-18,-2.6040452456080327e-18,-0.021563463892347225
-3.215390972331411e-08,-3.9346857641810772e-19,-3.9785766420956893e-08,3.9703107322874215e-08,7.253315029915076e-08,7.665426347216031e-19,1.227167754871652e-18,-1.0046438632665688e-05,-5.6343754607146605e-06,3.997102787239508e-18,-1.0555421523701777e-05,1.4131634908363228e-05,3.378704076657376e-05,4.438507177200264e-18,-2.6040452456080327e-18,-0.021563463892347225
-3.2153909726108325e-08,3.2682249580149204e-19,-3.978576642067107e-08,3.970310732510003e-08,7.25331502985069e-08,5.526847867647788e-20,-1.8139759053640745e-19,-1.0046438632665839e-05,-5.6343754607146605e-06,3.997102787239508e-18,-1.0555421523701777e-05,1.4131634908363228e-05,3.378704076657376e-05,4.438507177200264e-18,-2.6040452456080327e-18,-0.021563463892347225
-3.21539097246687e-08,-5.294927703582596e-19,-3.978576642099434e-08,3.970310732387001e-08,7.253315029901366e-08,-3.5972121037299224e-20,3.9706093808007854e-19,-1.0046438632665725e-05,-5.6343754607146605e-06,3.997102787239508e-18,-1.0555421523701777e-05,1.4131634908363228e-05,3.378704076657376e-05,4.438507177200264e-18,-2.6040452456080327e-18,-0.021563463892347225
-3.2153909724081475e-08,9.627224224303141e-20,-3.97857664208156e-08,3.9703107323787164e-08,7.253315029906627e-08,2.0045995825409083e-19,7.072693118570195e-19,-1.0046438632665629e-05,-5.6343754607146605e-06,3.997102787239508e-18,-1.0555421523701777e-05,1.4131634908363228e-05,3.378704076657376e-05,4.438507177200264e-18,-2.6040452456080327e-18,-0.021563463892347225
-4.099024741362172e-08,1.9334049350638982e-19,-4.5315863883406686e-08,4.308520407430046e-08,7.65340216407197e-08,-1.1174190402774611e-20,-2.1857187927545465e-19,-1.0170112148311399e-05,-7.182779516254125e-06,4.92160021783374e-18,-1.2022592199022452e-05,1.5335433797260372e-05,3.5650707277583776e-05,4.437352428951818e-18,-2.7198296137981547e-18,-0.021828914116707503
-3.215390972379164e-08,-1.4502260497637566e-18,-3.9785766420984726e-08,3.9703107322975005e-08,7.253315029885797e-08,-3.119273110443258e-20,6.619330160289268e-19,-1.0046438632665637e-05,-5.6343754607146605e-06,3.997102787239508e-18,-1.0555421523701777e-05,1.4131634908363228e-05,3.378704076657376e-05,4.438507177200264e-18,-2.6040452456080327e-18,-0.021563463892347225
-3.2153909726027315e-08,4.422413975261463e-20,-3.9785766420532265e-08,3.970310732514814e-08,7.253315029844006e-08,-1.0702078849336519e-19,-1.8047515915074328e-19,-1.0046438632665823e-05,-5.6343754607146605e-06,3.997102787239508e-18,-1.0555421523701777e-05,1.4131634908363228e-05,3.378704076657376e-05,4.438507177200264e-18,-2.6040452456080327e-18,-0.021563463892347225
-3.215390972792132e-08,1.761160098824657e-18,-3.9785766419573364e-08,3.970310732662141e-08,7.253315029799731e-08,-1.1925054413247468e-18,-9.190697689470143e-19,-1.0046438632665969e-05,-5.6343754607146605e-06,3.997102787239508e-18,-1.0555421523701777e-05,1.4131634908363228e-05,3.378704076657376e-05,4.438507177200264e-18,-2.6040452456080327e-18,-0.021563463892347225
-8.675337632891186e-08,9.205604158220087e-18,-9.105913779697583e-08,8.570813596850471e-08,1.5176493406430265e-07,-2.14602780260272e-18,-5.108961533023645e-19,-2.0136491814587057e-05,-5.6343754607146605e-06,3.997102787239508e-18,-1.0555421523701777e-05,1.4131634908363228e-05,3.378704076657376e-05,4.438507177200264e-18,-2.6040452456080327e-18,-0.021563463892347225
-3.01524127535861e-20,-1.3703566798612917e-19,-2.841341158811261e-20,6.060672460907435e-19,3.626150147034608e-20,2.046557685776536e-19,-2.161277050445334e-19,1.4054978449157206e-19,-5.6343754607146605e-06,3.997102787239508e-18,-1.0555421523701777e-05,1.4131634908363228e-05,3.378704076657376e-05,4.438507177200264e-18,-2.6040452456080327e-18,-0.021563463892347225
-4.392461260351368e-08,3.0656671402753777e-19,-4.604305118239097e-08,4.331448730259319e-08,7.667515455688084e-08,-4.2686583994772263e-19,-3.668773510051579e-19,-1.0169148651256577e-05,-7.696972513754428e-06,6.29875719338936e-18,-1.2215519699576988e-05,1.54170431998481e-05,3.571644912903413e-05,4.448330127645903e-18,-2.7207277572193145e-18,-0.021826846086959575
-8.675337632376725e-08,-8.638781312080795e-19,-9.105913779225063e-08,8.570813596849411e-08,1.5176493406836745e-07,1.2336184791781883e-18,-1.2907386451931478e-18,-2.0136491814585143e-05,-5.6343754607146605e-06,3.997102787239508e-18,-1.0555421523701777e-05,1.4131634908363228e-05,3.378704076657376e-05,4.438507177200264e-18,-2.6040452456080327e-18,-0.021563463892347225
-3.2153909728265507e-08,9.783050664490794e-19,-3.978576641949299e-08,3.970310732673671e-08,7.253315029814119e-08,-5.032561904473286e-19,-8.444635544646848e-19,-1.0046438632666096e-05,-5.6343754607146605e-06,3.997102787239508e-18,-1.0555421523701777e-05,1.4131634908363228e-05,3.378704076657376e-05,4.438507177200264e-18,-2.6040452456080327e-18,-0.021563463892347225
-2.5211767979380985e-07,4.7572979996106065e-18,-1.6996572698515704e-07,1.4398004216895583e-07,2.4269829486420604e-07,7.783662331062699e-19,5.2574392577759174e-20,-3.0292441622365844e-05,-5.6343754607146605e-06,3.997102787239508e-18,-1.0555421523701777e-05,1.4131634908363228e-05,3.378704076657376e-05,4.438507177200264e-18,-2.6040452456080327e-18,-0.021563463892347225
-3.2153909724533843e-08,-7.575459767042843e-19,-3.978576642106564e-08,3.970310732366988e-08,7.253315029878426e-08,1.153046950959192e-19,4.535376963045156e-19,-1.0046438632665742e-05,-5.6343754607146605e-06,3.997102787239508e-18,-1.0555421523701777e-05,1.4131634908363228e-05,3.378704076657376e-05,4.438507177200264e-18,-2.6040452456080327e-18,-0.021563463892347225
-3.7388639008617227e-20,-9.650465289292529e-20,-3.2805633048023195e-20,5.470340450176683e-19,-5.76366301592317e-20,9.694844835051111e-20,-1.8924541687887808e-19,1.466145940226049e-19,-5.6343754607146605e-06,3.997102787239508e-18,-1.0555421523701777e-05,1.4131634908363228e-05,3.378704076657376e-05,4.438507177200264e-18,-2.6040452456080327e-18,-0.021563463892347225
-1.9990273283283235e-07,-1.3081988098307218e-18,-1.5963492555139437e-07,1.3964484843948607e-07,2.386682308393837e-07,1.1832998926851076e-18,-1.3304493887513527e-18,-3.027044417900364e-05,-5.6343754607146605e-06,3.997102787239508e-18,-1.0555421523701777e-05,1.4131634908363228e-05,3.378704076657376e-05,4.438507177200264e-18,-2.6040452456080327e-18,-0.021563463892347225
-8.675337632692326e-08,5.979711301870752e-18,-9.105913779524354e-08,8.570813596717714e-08,1.5176493406860902e-07,-7.218778801327717e-19,-8.136052083827958e-19,-2.0136491814586125e-05,-5.6343754607146605e-06,3.997102787239508e-18,-1.0555421523701777e-05,1.4131634908363228e-05,3.378704076657376e-05,4.438507177200264e-18,-2.6040452456080327e-18,-0.021563463892347225
-3.215390972842149e-08,1.0511113705535198e-18,-3.978576641938417e-08,3.97031073275692e-08,7.253315029727989e-08,-1.443486521019229e-19,-1.2882162412859352e-18,-1.0046438632666103e-05,-5.6343754607146605e-06,3.997102787239508e-18,-1.0555421523701777e-05,1.4131634908363228e-05,3.378704076657376e-05,4.438507177200264e-18,-2.6040452456080327e-18,-0.021563463892347225
-3.2153909722734434e-08,-1.4362479705033945e-18,-3.978576642107729e-08,3.970310732275879e-08,7.253315030003284e-08,3.884018792620253e-20,1.143108956379852e-18,-1.0046438632665585e-05,-5.6343754607146605e-06,3.997102787239508e-18,-1.0555421523701777e-05,1.4131634908363228e-05,3.378704076657376e-05,4.438507177200264e-18,-2.6040452456080327e-18,-0.021563463892347225
-3.215390972457813e-08,-2.5178971063790497e-19,-3.978576642142532e-08,3.970310732428778e-08,7.25331502989368e-08,4.349344647920711e-19,5.122440093849665e-19,-1.0046438632665735e-05,-5.6343754607146605e-06,3.997102787239508e-18,-1.0555421523701777e-05,1.4131634908363228e-05,3.378704076657376e-05,4.438507177200264e-18,-2.6040452456080327e-18,-0.021563463892347225
-8.675337632778674e-08,6.2998849521727426e-18,-9.105913779679528e-08,8.57081359664383e-08,1.517649340685256e-07,-2.016407333270853e-18,-6.625427139603237e-19,-2.0136491814586247e-05,-5.6343754607146605e-06,3.997102787239508e-18,-1.0555421523701777e-05,1.4131634908363228e-05,3.378704076657376e-05,4.438507177200264e-18,-2.6040452456080327e-18,-0.021563463892347225
-1.6772168646363447e-07,1.2644593497036623e-17,-1.50823231361492e-07,1.3565572847811143e-07,2.3482464055635065e-07,-9.618728447976627e-19,-7.86891723667563e-19,-3.0248494484558815e-05,-5.6343754607146605e-06,3.997102787239508e-18,-1.0555421523701777e-05,1.4131634908363228e-05,3.378704076657376e-05,4.438507177200264e-18,-2.6040452456080327e-18,-0.021563463892347225
-8.675337632419798e-08,7.562254031824555e-19,-9.105913779266826e-08,8.570813596119183e-08,1.5176493406853792e-07,-9.88414828613782e-19,1.963501616340417e-18,-2.0136491814587206e-05,-5.6343754607146605e-06,3.997102787239508e-18,-1.0555421523701777e-05,1.4131634908363228e-05,3.378704076657376e-05,4.438507177200264e-18,-2.6040452456080327e-18,-0.021563463892347225
-3.2153909724243e-08,-2.316932716937745e-19,-3.978576642086619e-08,3.970310732296833e-08,7.253315029926084e-08,2.321371233170581e-20,7.352356223696179e-19,-1.0046438632665707e-05,-5.6343754607146605e-06,3.997102787239508e-18,-1.0555421523701777e-05,1.4131634908363228e-05,3.378704076657376e-05,4.438507177200264e-18,-2.6040452456080327e-18,-0.021563463892347225
-3.215390972395568e-08,-8.79055676753014e-19,-3.978576642106758e-08,3.970310732311242e-08,7.253315029926732e-08,4.279231578567036e-19,4.669898265376778e-19,-1.0046438632665627e-05,-5.6343754607146605e-06,3.997102787239508e-18,-1.0555421523701777e-05,1.4131634908363228e-05,3.378704076657376e-05,4.438507177200264e-18,-2.6040452456080327e-18,-0.021563463892347225
-3.215390972458567e-08,3.876428543657967e-21,-3.97857664211828e-08,3.9703107324178825e-08,7.253315029869037e-08,3.840286571342378e-19,4.58916987591832e-19,-1.0046438632665734e-05,-5.6343754607146605e-06,3.997102787239508e-18,-1.0555421523701777e-05,1.4131634908363228e-05,3.378704076657376e-05,4.438507177200264e-18,-2.6040452456080327e-18,-0.021563463892347225
-1.6126914345791447e-19,-3.0763884924363044e-19,-8.425425058578338e-20,1.9629304256035383e-18,-5.207833009942851e-20,6.401454704132507e-19,-5.456057015725227e-19,5.908906574694078e-19,-5.6343754607146605e-06,3.997102787239508e-18,-1.0555421523701777e-05,1.4131634908363228e-05,3.378704076657376e-05,4.438507177200264e-18,-2.6040452456080327e-18,-0.021563463892347225
-3.2480594390976974e-06,1.1814798989787326e-18,-4.0188720349180505e-06,4.010475982185487e-06,7.326646865836598e-06,6.1172878961683685e-21,-8.31996792860009e-19,-0.0010147922109804135,-5.6343754607146605e-06,3.997102787239508e-18,-1.0555421523701777e-05,1.4131634908363228e-05,3.378704076657376e-05,4.438507177200264e-18,-2.6040452456080327e-18,-0.021563463892347225
1.782342582714133e-19,3.4111875986945624e-22,1.9722000915852892e-19,-2.6310377893806784e-18,2.218379581846375e-19,-3.335256726646734e-19,9.533999000560142e-19,-6.745847936093443e-19,-5.6343754607146605e-06,3.997102787239508e-18,-1.0555421523701777e-05,1.4131634908363228e-05,3.378704076657376e-05,4.438507177200264e-18,-2.6040452456080327e-18,-0.021563463892347225
-2.2431220530627235e-07,-6.5952104166793715e-18,-1.68006409592548e-07,1.4387986756866122e-07,2.432121598943015e-07,2.2707542168605303e-18,-1.2843979373894736e-19,-3.0393692495477518e-05,-7.698361242002406e-06,7.929634576166106e-18,-1.2216045774175037e-05,1.5417348163546592e-05,3.5716823155244354e-05,4.311670516938514e-18,-2.7254822581217187e-18,-0.021826855530047283
1.4014527367814494e-19,4.223664537154842e-19,2.1552825665731467e-19,-2.545017287408863e-18,-3.021383355558819e-19,-2.344799904981211e-19,1.0112304017630677e-18,-8.87319756757902e-19,-5.6343754607146605e-06,3.997102787239508e-18,-1.0555421523701777e-05,1.4131634908363228e-05,3.378704076657376e-05,4.438507177200264e-18,-2.6040452456080327e-18,-0.021563463892347225
-3.250288864208145e-06,3.6808592713775654e-19,-4.020242528150435e-06,4.011555087114814e-06,7.32838555711951e-06,1.7112217892555393e-19,4.0963086968038805e-19,-0.001014994894459823,-5.6343754607146605e-06,3.997102787239508e-18,-1.0555421523701777e-05,1.4131634908363228e-05,3.378704076657376e-05,4.438507177200264e-18,-2.6040452456080327e-18,-0.021563463892347225
-3.21539097245746e-08,-4.1942526143162066e-19,-3.978576642079756e-08,3.970310732360747e-08,7.253315029861616e-08,2.318150721589479e-19,4.377087291381346e-19,-1.004643863266574e-05,-5.6343754607146605e-06,3.997102787239508e-18,-1.0555421523701777e-05,1.4131634908363228e-05,3.378704076657376e-05,4.438507177200264e-18,-2.6040452456080327e-18,-0.021563463892347225
9.382413718501646e-20,2.6449107401610054e-20,1.2543792465782774e-19,-1.2188801495900886e-18,1.6592005703403443e-19,-2.2669591785479145e-19,4.726021408023413e-19,-2.1667536691389786e-19,-5.6343754607146605e-06,3.997102787239508e-18,-1.0555421523701777e-05,1.4131634908363228e-05,3.378704076657376e-05,4.438507177200264e-18,-2.6040452456080327e-18,-0.021563463892347225
-3.215390972577874e-08,8.29704374769416e-20,-3.978576642060992e-08,3.970310732482491e-08,7.253315029853619e-08,-4.656510326777506e-20,-5.568624570036593e-20,-1.0046438632665822e-05,-5.6343754607146605e-06,3.997102787239508e-18,-1.0555421523701777e-05,1.4131634908363228e-05,3.378704076657376e-05,4.438507177200264e-18,-2.6040452456080327e-18,-0.021563463892347225
-4.0879099028611754e-08,1.7160883641747734e-18,-4.525364949863501e-08,4.3048948778738633e-08,7.649233303437855e-08,-8.734554372232045e-19,-1.2053480722364681e-18,-1.0168882867953634e-05,-7.16330282629668e-06,3.934866031013628e-18,-1.2006086320046398e-05,1.5322529350467458e-05,3.563128809312323e-05,4.4988041028181165e-18,-2.6041811089368554e-18,-0.021826275615285627
-4.425168061507654e-06,1.6278991545005714e-18,-4.644609401045742e-06,4.371616830532605e-06,7.740849200609496e-06,-6.408027964442443e-20,-6.13829301321027e-19,-0.0010270632155030743,-5.6343754607146605e-06,3.997102787239508e-18,-1.0555421523701777e-05,1.4131634908363228e-05,3.378704076657376e-05,4.438507177200264e-18,-2.6040452456080327e-18,-0.021563463892347225
-4.404631117743538e-07,2.004752926535936e-18,-2.433449867415521e-07,1.989833749188401e-07,3.3016971918959163e-07,1.4909947556084003e-18,-9.355506135797988e-20,-4.042653733717832e-05,-5.6343754607146605e-06,3.997102787239508e-18,-1.0555421523701777e-05,1.4131634908363228e-05,3.378704076657376e-05,4.438507177200264e-18,-2.6040452456080327e-18,-0.021563463892347225
-3.215390972788308e-08,6.181040299537373e-19,-3.978576642005258e-08,3.9703107325876795e-08,7.25331502976229e-08,-6.759709240314284e-19,-9.231476315964938e-19,-1.0046438632666088e-05,-5.6343754607146605e-06,3.997102787239508e-18,-1.0555421523701777e-05,1.4131634908363228e-05,3.378704076657376e-05,4.438507177200264e-18,-2.6040452456080327e-18,-0.021563463892347225
-3.215390972530272e-08,-8.10395255997372e-21,-3.9785766420766066e-08,3.9703107324471627e-08,7.25331502985695e-08,-1.8482171996783443e-20,9.207986297277076e-20,-1.0046438632665771e-05,-5.6343754607146605e-06,3.997102787239508e-18,-1.0555421523701777e-05,1.4131634908363228e-05,3.378704076657376e-05,4.438507177200264e-18,-2.6040452456080327e-18,-0.021563463892347225
-8.675337632541873e-08,1.963626784212722e-18,-9.10591377938204e-08,8.570813596524054e-08,1.5176493406831973e-07,-9.156707992881254e-19,2.1620107310971523e-19,-2.0136491814586247e-05,-5.6343754607146605e-06,3.997102787239508e-18,-1.0555421523701777e-05,1.4131634908363228e-05,3.378704076657376e-05,4.438507177200264e-18,-2.6040452456080327e-18,-0.021563463892347225
-1.999027328426486e-07,1.039199923986192e-17,-1.5963492555636963e-07,1.396448484384247e-07,2.3866823084079e-07,-1.2620753003240935e-18,-1.0031832106139774e-18,-3.02704441790064e-05,-5.6343754607146605e-06,3.997102787239508e-18,-1.0555421523701777e-05,1.4131634908363228e-05,3.378704076657376e-05,4.438507177200264e-18,-2.6040452456080327e-18,-0.021563463892347225
-3.215390972752783e-08,6.480508056515122e-19,-3.97857664198517e-08,3.970310732624984e-08,7.253315029758789e-08,-4.900742153402549e-19,-8.383087623360408e-19,-1.0046438632665927e-05,-5.6343754607146605e-06,3.997102787239508e-18,-1.0555421523701777e-05,1.4131634908363228e-05,3.378704076657376e-05,4.438507177200264e-18,-2.6040452456080327e-18,-0.021563463892347225
-3.215390972703571e-08,6.9045316186625275e-19,-3.978576642005235e-08,3.970310732584419e-08,7.25331502986592e-08,-4.78021463436016e-19,-5.254935941152751e-19,-1.0046438632665962e-05,-5.6343754607146605e-06,3.997102787239508e-18,-1.0555421523701777e-05,1.4131634908363228e-05,3.378704076657376e-05,4.438507177200264e-18,-2.6040452456080327e-18,-0.021563463892347225
1.56618982576867e-19,2.962886291523895e-19,4.7073508510658854e-20,-1.455329903518663e-18,-4.281709311035165e-20,-3.9729010592278505e-19,5.592046587635642e-19,-4.474826306778544e-19,-5.6343754607146605e-06,3.997102787239508e-18,-1.0555421523701777e-05,1.4131634908363228e-05,3.378704076657376e-05,4.438507177200264e-18,-2.6040452456080327e-18,-0.021563463892347225
-3.215390972371415e-08,-2.548619343094064e-19,-3.97857664217675e-08,3.9703107323401414e-08,7.253315029888021e-08,6.085719983764126e-19,7.104988411521749e-19,-1.0046438632665574e-05,-5.6343754607146605e-06,3.997102787239508e-18,-1.0555421523701777e-05,1.4131634908363228e-05,3.378704076657376e-05,4.438507177200264e-18,-2.6040452456080327e-18,-0.021563463892347225
-8.675337632332747e-08,-8.65368423486698e-19,-9.105913779199189e-08,8.570813596534971e-08,1.5176493406806871e-07,1.4304393909246914e-19,9.083125721970107e-20,-2.013649181458546e-05,-5.6343754607146605e-06,3.997102787239508e-18,-1.0555421523701777e-05,1.4131634908363228e-05,3.378704076657376e-05,4.438507177200264e-18,-2.6040452456080327e-18,-0.021563463892347225
-3.215390972536612e-08,-6.679255331561703e-20,-3.978576642069971e-08,3.9703107324513614e-08,7.253315029870861e-08,7.608621470738238e-20,9.269395011546518e-20,-1.004643863266579e-05,-5.6343754607146605e-06,3.997102787239508e-18,-1.0555421523701777e-05,1.4131634908363228e-05,3.378704076657376e-05,4.438507177200264e-18,-2.6040452456080327e-18,-0.021563463892347225
-1.9990273283301754e-07,-7.220137467568614e-19,-1.596349255508758e-07,1.39644848433651e-07,2.386682308401358e-07,3.578261304047467e-19,4.0208015957793604e-19,-3.0270444179004992e-05,-5.6343754607146605e-06,3.997102787239508e-18,-1.0555421523701777e-05,1.4131634908363228e-05,3.378704076657376e-05,4.438507177200264e-18,-2.6040452456080327e-18,-0.021563463892347225
-3.2153909724221864e-08,-5.549745002635189e-19,-3.978576642090288e-08,3.970310732346106e-08,7.253315029893577e-08,1.574604233928533e-19,5.32840289893197e-19,-1.0046438632665662e-05,-5.6343754607146605e-06,3.997102787239508e-18,-1.0555421523701777e-05,1.4131634908363228e-05,3.378704076657376e-05,4.438507177200264e-18,-2.6040452456080327e-18,-0.021563463892347225
-2.521176797936448e-07,2.8586513446429288e-18,-1.699657269849765e-07,1.4398004217177345e-07,2.4269829486301797e-07,1.3555278764616735e-18,-1.0609552751324855e-18,-3.0292441622365017e-05,-5.6343754607146605e-06,3.997102787239508e-18,-1.0555421523701777e-05,1.4131634908363228e-05,3.378704076657376e-05,4.438507177200264e-18,-2.6040452456080327e-18,-0.021563463892347225
-3.21539097254572e-08,-7.068961934988504e-20,-3.978576642072854e-08,3.970310732461467e-08,7.253315029857462e-08,3.4606134081499107e-20,8.378058184503489e-20,-1.0046438632665784e-05,-5.6343754607146605e-06,3.997102787239508e-18,-1.0555421523701777e-05,1.4131634908363228e-05,3.378704076657376e-05,4.438507177200264e-18,-2.6040452456080327e-18,-0.021563463892347225
-8.675337633059453e-08,8.107306727270689e-18,-9.105913779882174e-08,8.570813596693647e-08,1.5176493406752574e-07,-2.3935347113914317e-18,-5.499414130567639e-19,-2.0136491814587348e-05,-5.6343754607146605e-06,3.997102787239508e-18,-1.0555421523701777e-05,1.4131634908363228e-05,3.378704076657376e-05,4.438507177200264e-18,-2.6040452456080327e-18,-0.021563463892347225
-4.392461259974126e-08,-1.2163662733256176e-19,-4.604305118434887e-08,4.331448730012144e-08,7.667515455776398e-08,8.131253503723235e-19,6.220768438183055e-19,-1.0169148651256113e-05,-7.69697251375326e-06,4.7701305305332845e-18,-1.221551969957638e-05,1.5417043199847716e-05,3.571644912903416e-05,4.473727728901796e-18,-2.675326836039531e-18,-0.021826846086959575
-3.2153909726658315e-08,6.091810856289901e-19,-3.978576642022622e-08,3.970310732597442e-08,7.253315029797071e-08,-2.7552092504456585e-19,-4.760814042217797e-19,-1.0046438632665866e-05,-5.6343754607146605e-06,3.997102787239508e-18,-1.0555421523701777e-05,1.4131634908363228e-05,3.378704076657376e-05,4.438507177200264e-18,-2.6040452456080327e-18,-0.021563463892347225
-0.013254269975760976,2.937011539570128e-17,0.004496790388405369,-0.18929671061264855,-0.050949856640641875,2.926283013495717e-17,9.74744148801463e-17,-0.00018988490609296663,-0.00019135417814579239,4.2059056674412065e-18,1.060401966535886e-05,-0.0006119532511682907,-8.439398441178477e-05,4.1921138976992355e-18,-2.687913037144085e-18,-0.021827974481787818
-3.215390972367892e-08,-2.7272920239959624e-19,-3.978576642182616e-08,3.9703107323948604e-08,7.253315029882177e-08,3.157097275020656e-19,7.297049712237879e-19,-1.0046438632665662e-05,-5.6343754607146605e-06,3.997102787239508e-18,-1.0555421523701777e-05,1.4131634908363228e-05,3.378704076657376e-05,4.438507177200264e-18,-2.6040452456080327e-18,-0.021563463892347225
-4.08790990270574e-08,-6.396183468272392e-19,-4.525364949996428e-08,4.304894877513996e-08,7.649233303526563e-08,2.7987861557391624e-19,4.597218074070327e-19,-1.0168882867953129e-05,-7.163302826297381e-06,4.601522266458929e-18,-1.2006086320045828e-05,1.5322529350468305e-05,3.5631288093123e-05,4.405893335325581e-18,-2.7187960324457348e-18,-0.021826275615285627
-8.370015459255399e-20,-1.0923977914627297e-18,1.5823007144442313e-20,3.015398562030391e-18,2.702941454549583e-20,2.6802139273129605e-19,-5.708951582835696e-19,8.553107644453495e-19,-5.6343754607146605e-06,3.997102787239508e-18,-1.0555421523701777e-05,1.4131634908363228e-05,3.378704076657376e-05,4.438507177200264e-18,-2.6040452456080327e-18,-0.021563463892347225
-2.1799635681116805e-07,7.398293945125969e-19,-1.669502813348792e-07,1.43568473505437e-07,2.430115979580277e-07,-1.447975667283075e-18,2.266759117523367e-18,-3.0393425546252257e-05,-5.6343754607146605e-06,3.997102787239508e-18,-1.0555421523701777e-05,1.4131634908363228e-05,3.378704076657376e-05,4.438507177200264e-18,-2.6040452456080327e-18,-0.021563463892347225
-8.675337632932449e-08,8.887911664212911e-18,-9.10591377976724e-08,8.570813596743514e-08,1.5176493406877847e-07,-1.6662502206544284e-18,-1.8242327090610846e-18,-2.0136491814586698e-05,-5.6343754607146605e-06,3.997102787239508e-18,-1.0555421523701777e-05,1.4131634908363228e-05,3.378704076657376e-05,4.438507177200264e-18,-2.6040452456080327e-18,-0.021563463892347225
2.0602525096660366e-19,6.623051702272382e-19,1.8185808215759886e-19,-4.041107445394428e-18,2.2175934026656825e-19,-1.2648843019634932e-18,1.6294644751143528e-18,-1.1862981114175635e-18,-5.6343754607146605e-06,3.997102787239508e-18,-1.0555421523701777e-05,1.4131634908363228e-05,3.378704076657376e-05,4.438507177200264e-18,-2.6040452456080327e-18,-0.021563463892347225
-3.215390972797365e-08,5.728556034975364e-19,-3.9785766420135655e-08,3.970310732626127e-08,7.253315029806353e-08,-9.13246027594985e-19,-7.224393338280565e-19,-1.004643863266605e-05,-5.6343754607146605e-06,3.997102787239508e-18,-1.0555421523701777e-05,1.4131634908363228e-05,3.378704076657376e-05,4.438507177200264e-18,-2.6040452456080327e-18,-0.021563463892347225
8.868694224912357e-21,3.0229502901154994e-20,3.3373359120589877e-21,-1.4357817478174048e-19,1.4833138709627383e-20,-2.982089705003956e-20,5.1053870146774896e-20,-2.9570074914448833e-20,-5.6343754607146605e-06,3.997102787239508e-18,-1.0555421523701777e-05,1.4131634908363228e-05,3.378704076657376e-05,4.438507177200264e-18,-2.6040452456080327e-18,-0.021563463892347225
-3.215390972460731e-08,1.0684855073409241e-19,-3.978576642105837e-08,3.970310732369155e-08,7.253315029899312e-08,3.3067534424297817e-19,4.1696312766204254e-19,-1.004643863266571e-05,-5.6343754607146605e-06,3.997102787239508e-18,-1.0555421523701777e-05,1.4131634908363228e-05,3.378704076657376e-05,4.438507177200264e-18,-2.6040452456080327e-18,-0.021563463892347225
-1.7995935084780353e-19,-5.595136403848803e-20,-2.6894570119813494e-19,2.2052527192161516e-18,3.40995319411093e-20,6.092699897046971e-19,-7.233083154196572e-19,4.974668827039125e-19,-5.6343754607146605e-06,3.997102787239508e-18,-1.0555421523701777e-05,1.4131634908363228e-05,3.378704076657376e-05,4.438507177200264e-18,-2.6040452456080327e-18,-0.021563463892347225
-9.698041903172018e-20,-1.876563496202033e-19,-1.4200036135451677e-19,1.6710578139168238e-18,-3.105396703816763e-19,2.6541316199441797e-19,-5.460711245402177e-19,4.491196121170744e-19,-5.6343754607146605e-06,3.997102787239508e-18,-1.0555421523701777e-05,1.4131634908363228e-05,3.378704076657376e-05,4.438507177200264e-18,-2.6040452456080327e-18,-0.021563463892347225
-3.215390972521466e-08,-2.481442434418014e-19,-3.978576642077991e-08,3.970310732448357e-08,7.253315029859918e-08,8.243665174295525e-20,2.303919815049518e-19,-1.0046438632665781e-05,-5.6343754607146605e-06,3.997102787239508e-18,-1.0555421523701777e-05,1.4131634908363228e-05,3.378704076657376e-05,4.438507177200264e-18,-2.6040452456080327e-18,-0.021563463892347225
-3.2153909724310425e-08,-6.735049727977923e-19,-3.978576642103874e-08,3.970310732375144e-08,7.25331502985817e-08,2.535978862046673e-19,3.9813936955816083e-19,-1.0046438632665668e-05,-5.6343754607146605e-06,3.997102787239508e-18,-1.0555421523701777e-05,1.4131634908363228e-05,3.378704076657376e-05,4.438507177200264e-18,-2.6040452456080327e-18,-0.021563463892347225
-4.5342652038208215e-06,7.99035601473258e-18,-4.719522663526964e-06,4.430420380762939e-06,7.83443264981743e-06,-1.6290412192850388e-18,-1.4858621989201488e-18,-0.0010376313431650695,-7.767768178554767e-06,5.990941644288369e-18,-1.225761499345239e-05,1.5445571995411423e-05,3.575537344703983e-05,4.453798515154536e-18,-2.6904664591233062e-18,-0.021830002781799484
-1.1043931587436423e-07,-9.078747441414482e-18,-9.87513985198331e-08,8.974173609249037e-08,1.56196357244011e-07,1.1356292028445857e-18,6.8542551323628885e-19,-2.025991102473299e-05,-5.6343754607146605e-06,3.997102787239508e-18,-1.0555421523701777e-05,1.4131634908363228e-05,3.378704076657376e-05,4.438507177200264e-18,-2.6040452456080327e-18,-0.021563463892347225
-3.215390972725459e-08,-4.759760360369791e-20,-3.9785766420102224e-08,3.970310732632552e-08,7.253315029785534e-08,-6.314713059993239e-19,-7.660043727701343e-19,-1.0046438632665978e-05,-5.6343754607146605e-06,3.997102787239508e-18,-1.0555421523701777e-05,1.4131634908363228e-05,3.378704076657376e-05,4.438507177200264e-18,-2.6040452456080327e-18,-0.021563463892347225
-1.9990273282818087e-07,-7.008241762364246e-18,-1.596349255493367e-07,1.3964484843539305e-07,2.386682308382629e-07,1.9156703939964125e-18,-6.066153118500933e-19,-3.0270444179003982e-05,-5.6343754607146605e-06,3.997102787239508e-18,-1.0555421523701777e-05,1.4131634908363228e-05,3.378704076657376e-05,4.438507177200264e-18,-2.6040452456080327e-18,-0.021563463892347225
-1.9990273283341003e-07,-4.684327900090599e-19,-1.5963492555151163e-07,1.396448484336387e-07,2.3866823084008526e-07,-6.856600959322512e-20,5.007210375264547e-19,-3.0270444179005307e-05,-5.6343754607146605e-06,3.997102787239508e-18,-1.0555421523701777e-05,1.4131634908363228e-05,3.378704076657376e-05,4.438507177200264e-18,-2.6040452456080327e-18,-0.021563463892347225
-3.2153909724249545e-08,-4.555324716414456e-19,-3.9785766421273095e-08,3.9703107323319946e-08,7.253315029892051e-08,-1.1649728244954615e-19,6.008438196498684e-19,-1.0046438632665666e-05,-5.6343754607146605e-06,3.997102787239508e-18,-1.0555421523701777e-05,1.4131634908363228e-05,3.378704076657376e-05,4.438507177200264e-18,-2.6040452456080327e-18,-0.021563463892347225
-1.9990273283044322e-07,-4.0301315954608276e-18,-1.5963492554956223e-07,1.3964484843980347e-07,2.3866823083802225e-07,2.1749278181192375e-18,-1.4043752986174286e-18,-3.0270444179003603e-05,-5.6343754607146605e-06,3.997102787239508e-18,-1.0555421523701777e-05,1.4131634908363228e-05,3.378704076657376e-05,4.438507177200264e-18,-2.6040452456080327e-18,-0.021563463892347225
-8.675337631926772e-08,-9.353740299046098e-18,-9.105913778853864e-08,8.570813596401548e-08,1.51764934066673e-07,1.2203927560373054e-18,2.613188764967548e-19,-2.0136491814584177e-05,-5.6343754607146605e-06,3.997102787239508e-18,-1.0555421523701777e-05,1.4131634908363228e-05,3.378704076657376e-05,4.438507177200264e-18,-2.6040452456080327e-18,-0.021563463892347225
-3.2153909723382044e-08,-1.5823295850411792e-18,-3.978576642118406e-08,3.970310732265844e-08,7.253315029896876e-08,9.209934988758818e-21,1.1806820933299807e-18,-1.0046438632665629e-05,-5.6343754607146605e-06,3.997102787239508e-18,-1.0555421523701777e-05,1.4131634908363228e-05,3.378704076657376e-05,4.438507177200264e-18,-2.6040452456080327e-18,-0.021563463892347225
-0.0004095155927172808,5.038323020482861e-19,6.353477294234073e-05,-0.002392833044956171,-0.0005764467604371705,-3.457211935449143e-18,1.7388493572016863e-18,-0.0010513353023968812,-5.6343754607146605e-06,3.997102787239508e-18,-1.0555421523701777e-05,1.4131634908363228e-05,3.378704076657376e-05,4.438507177200264e-18,-2.6040452456080327e-18,-0.021563463892347225
-1.7229203119944495e-19,-2.235642977999147e-19,-1.5172558857446373e-19,2.429842973557536e-18,-3.707861150396791e-19,-8.317676196768969e-20,-1.159072541472061e-18,6.007651748567159e-19,-5.6343754607146605e-06,3.997102787239508e-18,-1.0555421523701777e-05,1.4131634908363228e-05,3.378704076657376e-05,4.438507177200264e-18,-2.6040452456080327e-18,-0.021563463892347225
-8.675337631905236e-08,-9.282738571348176e-18,-9.105913778802719e-08,8.570813596156128e-08,1.517649340683817e-07,2.015609000260759e-18,6.960478891304994e-19,-2.0136491814584875e-05,-5.6343754607146605e-06,3.997102787239508e-18,-1.0555421523701777e-05,1.4131634908363228e-05,3.378704076657376e-05,4.438507177200264e-18,-2.6040452456080327e-18,-0.021563463892347225
